{"type":"LSTM","options":{"inputSize":23,"inputRange":23,"hiddenLayers":[20,20],"outputSize":23,"decayRate":0.999,"smoothEps":1e-8,"regc":0.000001,"clipval":5,"maxPredictionLength":100,"dataFormatter":{"indexTable":{"m":0,"y":1," ":2,"u":3,"n":4,"i":5,"t":6,"e":7,"s":8,"f":9,"a":10,"l":11,"d":12,"o":13,"w":14,"r":15,"v":16,"k":17,"g":18,"h":19,"stop-input":20,"start-output":21,"unrecognized":22},"characterTable":{"0":"m","1":"y","2":" ","3":"u","4":"n","5":"i","6":"t","7":"e","8":"s","9":"f","10":"a","11":"l","12":"d","13":"o","14":"w","15":"r","16":"v","17":"k","18":"g","19":"h","20":null,"21":null,"22":null},"values":[{"input":"my unit test failed","output":"software"},{"input":"my driver is working","output":"hardware"}],"characters":["m","y"," ","u","n","i","t","e","s","f","a","l","d","o","w","r","v","k","g","h","stop-input","start-output","unrecognized"],"specialIndexes":[20,21,22]}},"trainOpts":{"iterations":1000,"errorThresh":0.005,"logPeriod":10,"learningRate":0.01,"callbackPeriod":10,"timeout":"Infinity"},"input":{"rows":24,"columns":23,"weights":[-0.11511585116386414,-0.6509492993354797,-0.26584312319755554,-1.0726640224456787,-0.22271214425563812,-1.2891263961791992,0.09529849141836166,0.9246309995651245,1.2697021961212158,0.6178743839263916,-1.2151025533676147,-0.5936713814735413,0.25517216324806213,0.13833777606487274,0.1521240919828415,-0.0013494357699528337,0.525356650352478,-1.1184602975845337,0.7117232084274292,-0.5100334286689758,0.5430182218551636,0.5955978631973267,-0.4852127134799957,-0.4755740165710449,-0.2421826720237732,-0.07128547132015228,-0.6963625550270081,0.8516687750816345,-1.1520967483520508,-0.5764477252960205,1.2225332260131836,-0.09721393883228302,1.1055116653442383,-0.7950300574302673,0.3497571647167206,-0.7326483130455017,-0.5707630515098572,0.48155495524406433,-0.570591926574707,0.9348504543304443,-0.853152871131897,-0.4842124879360199,0.373277872800827,-0.4241406321525574,-1.1544644832611084,-0.3001224994659424,-0.324612021446228,-0.11137709021568298,-0.7788278460502625,0.014562038704752922,0.395120233297348,0.2710399329662323,1.014905333518982,0.15207259356975555,0.6341833472251892,-0.0019450964173302054,0.03642310947179794,-0.5181500315666199,0.7051969766616821,0.7248449325561523,0.29772287607192993,1.0316872596740723,-0.471727192401886,0.16664913296699524,-0.19282150268554688,-0.6284664869308472,0.6624669432640076,-0.014111264608800411,0.03783486783504486,-0.26405060291290283,-0.596724808216095,-1.1755900382995605,-0.24241551756858826,0.03540469706058502,-0.25110888481140137,0.9367877840995789,0.763953685760498,0.1697022020816803,0.027877040207386017,-0.421074241399765,-0.05634697899222374,0.8189680576324463,1.0275647640228271,-0.03792768716812134,0.9349642395973206,-0.3941415548324585,-0.32053107023239136,-0.37727275490760803,-0.43847954273223877,0.5613281726837158,0.19005030393600464,-0.05853802338242531,0.8182747960090637,0.8199440240859985,-0.055305350571870804,0.6630671620368958,-1.3133575916290283,0.29966509342193604,-0.9038734436035156,-0.648716390132904,-0.644237220287323,0.5457492470741272,0.5396376252174377,0.21518199145793915,-1.3295447826385498,-0.7997169494628906,-0.9899937510490417,-0.9841178059577942,0.02412017621099949,0.5446890592575073,0.3853732645511627,1.1170165538787842,-0.6967085003852844,-1.6643955707550049,0.9442093968391418,1.1956440210342407,1.3664929866790771,-0.04329274594783783,0.37346139550209045,-1.2412114143371582,0.3590514063835144,-0.41881176829338074,-0.2810375690460205,0.4214002788066864,-0.4294346570968628,0.5596058368682861,-0.3816930055618286,-0.47112056612968445,-0.06365735828876495,-1.0240998268127441,-0.2036055326461792,0.2781435549259186,0.644774317741394,0.6271980404853821,1.294532299041748,0.14105233550071716,-0.18078167736530304,1.4177767038345337,-0.19793841242790222,-0.24747315049171448,0.8727477788925171,-0.5644176006317139,-0.2676740884780884,-0.9154631495475769,-0.4356156289577484,0.7648577094078064,0.5122522115707397,1.2989338636398315,-0.5923274755477905,0.5517228245735168,-0.44611114263534546,-0.4315831661224365,0.4545763432979584,-0.2613624632358551,0.8408476710319519,-0.7753498554229736,-1.2431246042251587,-0.131883442401886,-0.369880348443985,-0.5076406598091125,0.02836472913622856,0.7005573511123657,0.8322545289993286,0.11286504566669464,1.4826747179031372,-0.030113475397229195,1.5129142999649048,-0.1025468111038208,-0.9853003621101379,-0.2567412555217743,-0.1716560572385788,1.6360355615615845,0.39993664622306824,-0.3640744686126709,0.1925169974565506,-0.9290856122970581,0.1543421745300293,-0.20163848996162415,1.273688793182373,-0.2720952033996582,0.7219157218933105,-0.3106333613395691,-0.5614868402481079,0.8959442377090454,-0.723455548286438,-1.3441076278686523,0.7269821763038635,-0.7131673693656921,0.5067152976989746,-0.703709065914154,0.47893956303596497,0.6420775055885315,0.16248008608818054,0.8591492772102356,-0.7479065656661987,-0.9518014192581177,0.5672504901885986,0.38073644042015076,0.826332151889801,0.3840552270412445,0.47848281264305115,-0.4055446684360504,-0.34755587577819824,-0.7839999198913574,0.5468951463699341,0.9425686597824097,-0.6574540138244629,-0.6393896341323853,-1.360824465751648,0.44498583674430847,-0.9846417307853699,0.4461860954761505,-0.8041811585426331,0.2562088668346405,0.4982147812843323,0.29132455587387085,0.7017630338668823,-0.9118840098381042,-0.5158748626708984,0.22418774664402008,0.2822323441505432,0.8825920224189758,0.16081666946411133,0.7343620657920837,-0.24460116028785706,-0.5376582145690918,-0.6611559987068176,0.40184181928634644,-0.01487987581640482,-0.3375658392906189,-0.9163841605186462,0.4878418743610382,-2.550557851791382,1.580783486366272,0.93983393907547,1.3884615898132324,-0.6044455766677856,-1.178654670715332,-1.084183692932129,-2.0604190826416016,1.7116490602493286,-1.0743101835250854,0.0200099628418684,1.0583301782608032,0.3977409899234772,0.9180868864059448,0.03024045005440712,0.6919429898262024,1.419257640838623,-0.43970534205436707,1.303138256072998,-1.4877688884735107,-1.3799209594726562,-0.831132709980011,-0.6071458458900452,-0.4458160102367401,-0.06808043271303177,0.9796408414840698,0.20776298642158508,1.0304615497589111,0.07510053366422653,-0.21481606364250183,0.014533959329128265,-0.0387510284781456,-0.6824508309364319,1.157297968864441,0.9585096836090088,0.6777424216270447,1.0155704021453857,-0.3792496919631958,-0.30973881483078003,-0.336553692817688,-0.896469235420227,0.7971016764640808,-0.5047235488891602,-0.7890509963035583,0.3148519992828369,-0.6600642800331116,-0.847417950630188,0.60931795835495,-0.0980139970779419,1.0392142534255981,0.7230068445205688,-0.495248019695282,0.18081098794937134,-0.8119667172431946,0.5830333232879639,-0.2782643139362335,0.7629944086074829,0.6839255094528198,-0.1369435340166092,0.936788022518158,-1.1648175716400146,0.5824730396270752,0.4192639887332916,-0.8619623184204102,0.510675311088562,0.6518256068229675,0.3106183111667633,-0.10226188600063324,-0.3788423538208008,-0.08968909084796906,-0.5966530442237854,-0.27856945991516113,-0.5353900194168091,0.3059737980365753,0.3624114692211151,1.112612247467041,0.22152362763881683,-0.3563508987426758,-1.0692752599716187,0.28975892066955566,0.487059086561203,0.019086521118879318,0.16494904458522797,0.8071120381355286,-0.29069197177886963,0.44072869420051575,-0.5728127360343933,0.7710500359535217,0.9250453114509583,-0.10346677154302597,-0.27982327342033386,0.22515307366847992,-0.75696861743927,0.5220183730125427,0.4464438855648041,0.6402717232704163,1.243031620979309,-0.5613271594047546,-0.41300758719444275,-0.38523539900779724,0.3187759220600128,-0.24491354823112488,1.055509328842163,0.7874817848205566,0.08001671731472015,1.1812055110931396,-1.3237119913101196,0.136647567152977,-0.22784705460071564,-0.6653726696968079,0.6333597302436829,-0.6997431516647339,-0.2888519763946533,0.43497759103775024,0.4869655668735504,-0.5064835548400879,0.3631443679332733,1.2615087032318115,0.2494031935930252,-0.5314781069755554,-1.3057117462158203,-1.2733101844787598,-0.13568629324436188,0.1274711936712265,1.2906430959701538,-0.6098746657371521,-1.0400031805038452,0.5152119398117065,-0.3031471073627472,-0.15643268823623657,0.5341792106628418,-0.5549283027648926,0.5349408388137817,-0.9142097234725952,0.007444953545928001,0.010288732126355171,-0.32990390062332153,-0.02928341180086136,-0.715825080871582,0.47048866748809814,0.8188113570213318,0.4875097870826721,0.610148549079895,-0.6534863114356995,-1.4456950426101685,-0.2663661539554596,0.14022590219974518,0.7399224042892456,0.6750117540359497,-0.34194496273994446,0.28895512223243713,1.08340322971344,-0.8237016797065735,-0.1610383838415146,-0.45942339301109314,-0.40354084968566895,-0.2341543734073639,-0.533341109752655,-0.6679571866989136,-0.3914735019207001,-0.6300672888755798,-1.6752307415008545,-0.2231525331735611,0.7132365107536316,-0.1574489027261734,1.09405517578125,0.4453706443309784,1.2529436349868774,0.34479719400405884,-0.23838217556476593,-0.6576482653617859,0.3615916669368744,1.704367995262146,1.0707453489303589,1.3009121417999268,0.7127665281295776,-0.12088806927204132,-0.6548072099685669,-0.6630694270133972,0.8247970342636108,0.009658475406467915,0.1321433186531067,-0.8428140878677368,-0.5562783479690552,-1.0289232730865479,-0.008038927800953388,1.3889514207839966,0.13918347656726837,1.2099463939666748,1.2765090465545654,0.3090708255767822,-0.08244627714157104,0.21732552349567413,-0.7856370210647583,1.129117488861084,1.1157523393630981,1.0512266159057617,1.2296388149261475,-0.29146960377693176,0.12157103419303894,0.07212718576192856,-0.8685798048973083,1.0510900020599365,-1.784312129020691,-0.8512693047523499,1.0159742832183838,1.0667190551757812,-0.3892074525356293,-0.706132173538208,-1.4761184453964233,-0.2985749840736389,-0.3852120339870453,0.17016996443271637,0.3734571039676666,0.736037015914917,0.11983197182416916,-0.47871115803718567,-1.0198919773101807,-0.06897062808275223,-1.3723291158676147,-0.011245363391935825,0.3825118839740753,0.7746210098266602,0.9767955541610718,1.5086956024169922,0.2945594787597656,-0.6177154779434204,1.7676680088043213,-0.434038370847702,-0.10875911265611649,-1.2547149658203125,-0.32943177223205566,0.5900870561599731,-0.24682371318340302,0.438740998506546,-0.5576057434082031,0.5775443315505981,0.4702533483505249,-0.23252102732658386,-0.7785254716873169,0.7285424470901489,0.6890309453010559,0.011935745365917683,0.8353769183158875,0.19394461810588837,-0.4004492461681366,-0.5830596685409546,-0.4581100344657898,1.0543879270553589,-0.6207931637763977,-0.5766358375549316,0.719438910484314,1.21767258644104,-0.3097136616706848,-0.5532872676849365,-1.9755374193191528,-0.35599851608276367,0.06486915051937103,0.7306946516036987,0.7945464253425598,-0.7073562145233154,0.2087443470954895,-0.8863555788993835,-0.9170780777931213,0.19059400260448456,-1.9016392230987549,-0.03152044117450714,-0.2782292664051056,0.5549208521842957,1.2126197814941406,1.6752939224243164,0.5078528523445129,-0.7317348718643188,1.838506817817688,-0.2989998757839203,-0.4032866954803467,0.7348735332489014,-1.2273963689804077,0.2416706085205078,-1.4917742013931274,0.2705381512641907,0.8416943550109863,-0.29378542304039,1.5633599758148193,-1.397261381149292,0.6374921798706055,0.07186783850193024,-0.5306615233421326,0.14412985742092133,-0.4414258897304535,0.7314824461936951,-1.0685683488845825,-1.8143305778503418,-0.1856859028339386,-0.22826315462589264,-0.011684741824865341,0.1242906004190445,0.020645540207624435,0.05429961904883385,0.01545032113790512,-0.05841239169239998,0.011061998084187508,-0.05068454146385193,-0.055716000497341156,0.06798365712165833,0.004254776984453201,0.05349281430244446,-0.06005595624446869,0.07542882114648819,0.006128037814050913,-0.03262275829911232,0.029860448092222214,-0.03634943068027496,0.03730541467666626,0.05841623619198799,-0.04435499384999275,-0.04014013707637787,0.07744935154914856,0.0056826276704669,-0.041212745010852814]},"hiddenLayers":[{"inputMatrix":{"rows":20,"columns":23,"weights":[-1.2249500751495361,-0.982904314994812,-0.5561167597770691,-0.5597336888313293,0.8151886463165283,-0.5249137282371521,1.0323541164398193,0.681153416633606,0.2701756954193115,0.8054583072662354,-0.7376836538314819,-0.41170328855514526,1.034651517868042,0.4616171419620514,0.7393747568130493,1.124677300453186,0.41860878467559814,-1.1725503206253052,-0.6092654466629028,-1.1332796812057495,0.6520700454711914,-0.9343306422233582,-1.001476526260376,-1.0926287174224854,-1.0303664207458496,-0.8760830163955688,-0.5003166794776917,0.8243132829666138,-0.5661557912826538,1.1553062200546265,0.7487894892692566,0.02725362777709961,0.5627239346504211,-0.6622865796089172,-0.36905232071876526,1.2225366830825806,0.6626952290534973,0.5203599333763123,1.0661920309066772,0.1587323695421219,-0.7873857617378235,-0.48273593187332153,-1.2600253820419312,0.6704269051551819,-0.36365222930908203,-0.8145259022712708,0.7124863266944885,1.1113994121551514,0.7473437190055847,0.31792908906936646,-0.8207069635391235,-0.14139923453330994,-0.7725929617881775,-0.7145630121231079,-0.8345197439193726,0.2593157887458801,0.3833731710910797,0.6313408613204956,-1.1655319929122925,-1.0332331657409668,-0.5312786102294922,-0.9065451622009277,0.28153228759765625,0.4680100083351135,-0.23863257467746735,1.1041431427001953,-1.003273844718933,0.016906555742025375,1.1183046102523804,-0.9766637682914734,-0.09145757555961609,-0.2839195728302002,-0.2185351550579071,0.20632828772068024,-0.3967256247997284,0.92547208070755,0.4510304629802704,-0.0077088698744773865,0.5345398783683777,-0.5808975100517273,-0.47099539637565613,1.0051193237304688,0.3614383041858673,-0.17384448647499084,0.571925699710846,0.1578560620546341,-0.9806889891624451,-0.15100452303886414,-0.6786496639251709,0.452911913394928,-0.452781617641449,-0.8887094855308533,0.36478284001350403,0.261083722114563,0.991592526435852,0.06633808463811874,0.563393771648407,-0.21383054554462433,-0.8535764217376709,-0.8649870157241821,-0.7353265285491943,0.8173254132270813,-0.20715397596359253,1.0820883512496948,-0.9802341461181641,-1.0940337181091309,0.21552632749080658,-1.3054356575012207,0.4777356684207916,-0.09432993084192276,-1.6694899797439575,0.5863273739814758,-1.1232141256332397,-0.7812781929969788,0.45000967383384705,1.0962127447128296,0.8844581246376038,-0.5938737988471985,1.09709632396698,-1.0078964233398438,1.246074914932251,-0.36548665165901184,-0.5566640496253967,-0.19053946435451508,-0.7318858504295349,1.1832799911499023,-0.021567469462752342,-0.055373210459947586,-0.6711137890815735,-1.2404893636703491,-0.10360358655452728,-1.0128408670425415,0.5961703062057495,0.9180997610092163,0.8972492218017578,-0.2606736421585083,-0.5377286672592163,0.4524746537208557,1.1078728437423706,0.7244185209274292,1.0415126085281372,0.36711791157722473,-0.45701998472213745,0.17542864382266998,-0.5845732092857361,-0.42980241775512695,0.057600345462560654,0.9455879926681519,0.37853550910949707,0.5117721557617188,-1.4352120161056519,-0.22073477506637573,-1.018436074256897,-0.6134538650512695,0.7588517665863037,0.4955271780490875,-1.2985823154449463,0.8405368328094482,-0.5577352643013,-1.0550388097763062,1.5232102870941162,-0.7095942497253418,-1.1802743673324585,-1.2130532264709473,-0.2834654152393341,0.40373528003692627,0.1714487224817276,1.2337692975997925,0.45462551712989807,-0.006060934625566006,-0.0859835296869278,-0.3391752243041992,-0.9800994396209717,1.2710649967193604,1.317853569984436,0.3968253433704376,1.4773815870285034,-0.28685078024864197,-0.25607389211654663,0.5265024304389954,-1.1763437986373901,1.0019991397857666,0.8679741024971008,-0.8922717571258545,0.6124365925788879,0.4518032371997833,-0.27892357110977173,0.49014970660209656,-0.14678457379341125,0.48902595043182373,0.45805874466896057,-0.3807559311389923,-0.3721778094768524,-0.9000309705734253,0.06545612215995789,0.38082316517829895,0.28205496072769165,-0.4198946952819824,-0.8811601400375366,-0.04222632944583893,-1.0781561136245728,0.11227128654718399,0.521979808807373,0.5872669219970703,-0.175905242562294,0.251431941986084,0.2535610795021057,0.3137110471725464,0.3006120026111603,-0.5805565714836121,0.9949226975440979,0.3037607669830322,0.8964601159095764,-0.4701858460903168,-1.0529539585113525,-1.3875713348388672,-1.2206699848175049,0.7114260196685791,1.0793826580047607,-0.3884751796722412,-0.7599776983261108,-0.11288785934448242,-0.02790740132331848,-0.9957128763198853,0.5524466633796692,0.40209779143333435,0.3130300045013428,-0.9514808654785156,0.5109283924102783,-0.45417293906211853,0.39051932096481323,0.4483397603034973,-1.0699193477630615,0.061891838908195496,-0.14717325568199158,-0.06154628470540047,-0.4979751706123352,0.076462022960186,0.7771524786949158,-0.04507439211010933,0.1863902360200882,-0.0033738596830517054,-0.8005945086479187,-0.0813644677400589,-0.1702004224061966,0.029210887849330902,0.3801112473011017,0.15653423964977264,0.16266947984695435,0.149587482213974,-0.059074413031339645,-0.6904188990592957,0.4925346076488495,-0.5753391981124878,-0.8761174082756042,-0.591725766658783,-0.48867934942245483,0.6320079565048218,-0.14116211235523224,1.1723657846450806,0.5536243915557861,0.4678315222263336,0.6357635259628296,-0.9281362891197205,-0.19288916885852814,1.0775164365768433,0.43878787755966187,0.5778630971908569,1.0257445573806763,-0.3750826120376587,-0.7564367055892944,-0.6848251819610596,-1.051690697669983,0.5907526612281799,0.48460862040519714,-0.43280670046806335,-1.0675972700119019,-1.313443899154663,0.2571856677532196,-1.264618158340454,0.7385982871055603,-1.3172919750213623,0.26564812660217285,0.690253734588623,0.216579869389534,1.3732945919036865,-1.2736037969589233,-0.14461475610733032,0.06782004982233047,0.10543663799762726,0.8447142243385315,-0.20081380009651184,1.4855533838272095,-1.2328509092330933,-0.9744681119918823,-0.4387941062450409,0.1466570645570755,0.08147299289703369,-0.7732422947883606,-1.1179546117782593,-0.3300055265426636,-0.6274183988571167,-0.4033167064189911,1.2449418306350708,-0.5787875056266785,0.6767440438270569,0.08294692635536194,-0.21202942728996277,1.009772777557373,-1.120831847190857,0.13402703404426575,0.6792258024215698,-0.07051226496696472,1.0884901285171509,0.6453314423561096,0.46633970737457275,-0.9214167594909668,-1.129328966140747,-0.6097856760025024,0.1005685031414032,-0.7997256517410278,-1.2223114967346191,-1.2568813562393188,-0.5455607771873474,-0.5314015746116638,-0.3866712152957916,1.1605308055877686,-0.49078142642974854,0.6444907784461975,0.18553578853607178,-0.12059240788221359,0.5854246020317078,-0.6143279671669006,0.08069135993719101,0.802986204624176,0.22578079998493195,0.5356141328811646,0.9964705109596252,0.4284190833568573,-1.1914829015731812,-0.9999290108680725,-0.7658340334892273,0.46285414695739746,-1.5562695264816284,-1.4244186878204346,-0.9978649020195007,-0.7240681648254395,-0.3540104627609253,-1.0157724618911743,0.7918672561645508,-1.006859540939331,1.05241858959198,1.1906986236572266,0.1524680256843567,0.8982970714569092,-0.9303284287452698,-0.21522831916809082,1.0166383981704712,0.42067328095436096,0.5285183787345886,1.0137964487075806,0.4306637942790985,-1.0547544956207275,-0.47305917739868164,-1.0135905742645264,0.33547383546829224,-0.2945954501628876,-0.73292076587677,-0.8254232406616211,-0.3491193354129791,-0.038271915167570114,-0.4049800634384155,0.2751953601837158,-0.3289776146411896,1.298272728919983,0.7232072353363037,0.07985618710517883,0.475455105304718,-0.5104387402534485,-0.33322080969810486,1.1450806856155396,0.3968828022480011,0.07879944145679474,1.0418707132339478,-0.3049513101577759,-0.8455593585968018,-0.21547023952007294,-0.8570063710212708,0.43645811080932617,-0.8525475263595581,-0.4730141758918762,0.07642790675163269,-0.31660082936286926,-0.37329962849617004,0.5780669450759888,1.0813522338867188,0.6745725274085999,0.47832298278808594,-1.5253715515136719,-1.0231009721755981,-0.3646591305732727,0.07659657299518585,0.602475643157959,0.4758589267730713,-0.2126782238483429,0.6416002511978149,0.6269954442977905,-0.646763801574707,0.3692883849143982,-1.1426732540130615,-0.42035743594169617,-0.3836861252784729,1.4097683429718018,-0.32947593927383423,-0.4730250835418701,-1.028698205947876,-0.14969316124916077,-0.5833331942558289,0.10076805204153061,-0.5447791218757629,1.1010937690734863,0.5072731971740723,0.6972014904022217,0.5448915362358093,-0.9307299256324768,-0.44776058197021484,0.9822739362716675,0.9896379709243774,0.5974847078323364,0.3635767698287964,0.33672118186950684,-0.7190399169921875,-0.6532754302024841,-1.229098916053772,0.6323113441467285,1.1865291595458984,-0.4406214952468872,-0.09921429306268692,-0.009680180810391903,0.35767748951911926,-0.27480873465538025,0.7567074298858643,-0.5354604125022888,-0.42810508608818054,0.19973425567150116,-0.9571632146835327,0.6552304029464722,-0.18560625612735748,0.3038541376590729,-0.7912538051605225,-0.28827452659606934,0.13576644659042358,-0.26077988743782043,0.05799689143896103,0.7749877572059631,-0.4248420298099518,1.0619046688079834,-0.3545543849468231,-1.6446601152420044,0.4304180145263672]},"inputHidden":{"rows":20,"columns":20,"weights":[-0.15462633967399597,0.06731195002794266,-0.1976933628320694,0.1007007583975792,0.06831016391515732,0.15022248029708862,0.09863783419132233,0.2470438927412033,0.21317581832408905,0.09533828496932983,-0.4661867022514343,0.42332854866981506,0.3244533836841583,0.38393113017082214,0.14016185700893402,-0.3542258143424988,-0.08196121454238892,-0.747039258480072,-0.40153583884239197,-0.35088127851486206,0.07376647740602493,-0.2877148985862732,-0.17879681289196014,-0.2578181028366089,-0.021755605936050415,0.31904444098472595,0.01868748851120472,0.4438243806362152,0.22098693251609802,-0.38937172293663025,-0.6971217393875122,0.5158162117004395,0.2122783660888672,0.4221430718898773,-0.23159246146678925,-0.2922988831996918,0.3564283847808838,-0.4518963396549225,-0.5372048616409302,-0.10380061715841293,0.7772643566131592,-0.742182195186615,0.865482747554779,-0.8191615343093872,-0.4287329912185669,-0.8320289850234985,-0.05977359786629677,0.6054880023002625,-0.4839874505996704,0.6368125677108765,0.9846816062927246,0.2851100265979767,-0.5227591395378113,0.5665343403816223,-0.42210516333580017,-0.5918485522270203,0.617151141166687,0.3920212984085083,0.5816285014152527,0.5622920989990234,0.3571588695049286,-0.23560263216495514,0.2808142304420471,-0.05468105897307396,-0.850712239742279,0.20580369234085083,-0.7800855040550232,0.26691773533821106,0.19575729966163635,-0.14438697695732117,-0.6253733038902283,0.530127763748169,-0.10420037806034088,0.8479368090629578,-0.5339837074279785,-0.6737942099571228,0.2573768198490143,-0.5627146363258362,-0.07549118250608444,0.3657403886318207,-0.09918402135372162,-0.25585779547691345,0.3421533405780792,-0.19434867799282074,-0.19799135625362396,-0.01750308647751808,-0.42817801237106323,0.6427656412124634,-0.1653028130531311,-0.09388015419244766,0.2356477975845337,0.413570761680603,0.5447806119918823,-0.00004131421519559808,0.12338507920503616,-0.04146655276417732,0.08018733561038971,0.1679059863090515,0.21641652286052704,0.12517255544662476,-0.48180457949638367,1.0391063690185547,-0.16567033529281616,1.0537270307540894,0.31762439012527466,-0.2337084859609604,0.7087776064872742,-1.0948375463485718,0.01856493391096592,0.6272333860397339,0.042243592441082,-0.5086113810539246,0.6713948249816895,-0.01682167872786522,0.27912023663520813,0.0707889199256897,-0.8096100687980652,0.15626844763755798,-0.2182379961013794,-0.5500085949897766,0.3207961320877075,0.01459160540252924,0.71539306640625,0.10093272477388382,0.027616551145911217,-1.0132882595062256,0.3364904224872589,-0.43805280327796936,-0.7347235083580017,0.03944683074951172,0.6215900778770447,0.37553921341896057,0.2059628814458847,0.5125165581703186,-0.556458055973053,-0.5423323512077332,0.11569850146770477,-0.7356796264648438,-0.05748409405350685,0.7449423670768738,-0.14016921818256378,0.22558629512786865,-0.7402960658073425,0.15910300612449646,0.10392731428146362,0.6537958383560181,-0.09584176540374756,-0.3694123327732086,0.7498489618301392,-0.8364261984825134,-1.273480772972107,0.2962360382080078,0.2169913947582245,0.10653533041477203,0.21363450586795807,-0.15464259684085846,-0.032303258776664734,0.20803852379322052,-0.4827164113521576,-0.7849974632263184,-1.2148618698120117,2.3009843826293945,0.7488899230957031,1.8894320726394653,0.5079717636108398,-0.5626621842384338,0.7529670596122742,-2.15889835357666,-0.41642144322395325,0.49568042159080505,0.6223415732383728,-0.5787028670310974,0.23260445892810822,-0.6356304883956909,0.024077819660305977,0.47477811574935913,-1.648546576499939,-0.512902021408081,0.20359812676906586,-0.574045717716217,-0.06688479334115982,0.4571322500705719,0.5475732684135437,0.3384932279586792,-0.18088406324386597,0.49830371141433716,1.1639046669006348,-1.6859391927719116,0.7195711135864258,0.20363056659698486,-1.0166162252426147,-1.8175938129425049,0.024108020588755608,0.13578888773918152,0.012714208103716373,0.273445188999176,-0.7008466720581055,0.493240624666214,0.3037392199039459,0.09799020737409592,0.11530444771051407,0.13436464965343475,-0.1421346515417099,0.4445592164993286,0.8103287816047668,-1.1295275688171387,-0.02395484782755375,0.6295446753501892,-0.49382469058036804,0.8347566723823547,-0.5392351150512695,0.27597448229789734,2.0855281352996826,0.14099977910518646,1.3401204347610474,-0.47871512174606323,0.0733359232544899,-0.8768157958984375,-1.3698666095733643,-2.1169753074645996,-0.046226270496845245,-0.027661673724651337,-0.0845489352941513,-0.10742226243019104,0.20956754684448242,0.2756980359554291,0.05435188114643097,0.08061866462230682,0.18580634891986847,-0.5434204936027527,-0.6409158110618591,0.4420440196990967,0.09714307636022568,0.14720165729522705,0.15077142417430878,-0.18669168651103973,0.1167529821395874,0.6931618452072144,-0.21623705327510834,-0.4968038499355316,0.6988972425460815,-0.7263844013214111,0.13804657757282257,-0.26856040954589844,0.051676537841558456,-0.14155785739421844,-0.6586827635765076,0.17397744953632355,0.007063576951622963,-1.9869974851608276,-0.09674970805644989,0.2345503866672516,0.8316754102706909,0.3174223005771637,-0.2576219141483307,-0.09668859094381332,0.23969830572605133,-0.8112910389900208,-0.25322625041007996,0.1254814714193344,0.027494797483086586,-0.13615286350250244,-0.12030617892742157,0.07883777469396591,0.0882650688290596,0.2643624544143677,0.015545095317065716,-0.0036110258661210537,0.3191983997821808,-0.3793964385986328,-0.26799073815345764,0.5233482122421265,0.14118938148021698,0.7574770450592041,-0.1370820552110672,-0.6897388100624084,0.20674368739128113,-0.8435655832290649,-0.47667446732521057,-0.19301682710647583,0.6160240173339844,-0.3487749397754669,0.18212731182575226,-0.18729400634765625,-0.03236110880970955,-0.03991853445768356,0.08969665318727493,-0.14151212573051453,0.2627217769622803,-0.17581766843795776,0.8539516925811768,0.5479427576065063,0.2061779648065567,0.600761890411377,0.34383025765419006,-0.5102871656417847,0.207088902592659,0.5428941249847412,-0.06952427327632904,0.23164886236190796,0.20872077345848083,-0.13674499094486237,0.037101760506629944,-0.22291672229766846,-0.0834214985370636,0.3298622965812683,-0.09686261415481567,0.3415072560310364,0.23970071971416473,-0.5591877698898315,-0.7201210260391235,0.3317914605140686,0.05061044916510582,0.47373974323272705,-0.02040001004934311,-0.3264777362346649,0.2075001746416092,-0.07081983238458633,-0.2506862282752991,-0.12236405164003372,-0.23587001860141754,-0.16988036036491394,0.3229144811630249,-0.09304095804691315,-0.05233154073357582,0.1667645126581192,-0.16637538373470306,-0.027757320553064346,-0.025758160278201103,-0.731825590133667,-1.464103102684021,0.34948042035102844,-0.8975993990898132,0.42836055159568787,-0.21624159812927246,-0.26007431745529175,0.40866759419441223,1.5593020915985107,0.9744507670402527,0.5368726253509521,-0.4969402253627777,0.894033670425415,-0.3865649104118347,1.3158128261566162,1.5677642822265625,-0.4880198836326599,0.2581581771373749,-0.43555793166160583,-0.5124297142028809,1.5618534088134766,0.07286347448825836,0.08073410391807556,1.3792401552200317,-0.5432286262512207,1.4202991724014282,0.6265559196472168,-0.6844184994697571,-1.4864126443862915,-1.242889165878296,-0.4938283860683441,0.47704556584358215,-0.6732513308525085,-0.03826918452978134,-0.6287592649459839,-0.2712348997592926,-0.33976319432258606,-0.458549827337265,0.8428824543952942,-0.3315126895904541,-0.10891039669513702,-0.02039804309606552,0.65411376953125,-0.9285463094711304,0.02557535655796528,-1.0643503665924072,0.34262117743492126,0.4664769470691681,0.3869662284851074,1.1170223951339722,0.22814786434173584,1.1079901456832886,-1.4839597940444946,0.47412315011024475,-0.7177713513374329,-1.035757303237915,0.11679001897573471,0.382570743560791,1.1111834049224854,0.18465611338615417,-0.7079747915267944,0.6565528512001038,1.3202457427978516,-0.6120045185089111,1.6466387510299683,-0.49440860748291016,-1.5311963558197021,0.9878954887390137,-0.17738494277000427,0.4636550545692444,0.20803332328796387]},"inputBias":{"rows":20,"columns":1,"weights":[-0.221542626619339,-0.3547155261039734,-0.632814347743988,0.21371665596961975,-0.84839928150177,0.3061084747314453,-0.9885393381118774,0.08180445432662964,0.30354171991348267,0.33152416348457336,0.41958197951316833,-0.0652674213051796,0.3389589786529541,0.2036999613046646,0.3160538077354431,-0.24485468864440918,-0.3740585148334503,-0.3225625157356262,0.09159039705991745,-0.5591946840286255]},"forgetMatrix":{"rows":20,"columns":23,"weights":[-0.6153244376182556,-0.47019800543785095,0.009577138349413872,0.16561941802501678,0.9754589796066284,0.38588789105415344,0.9373781681060791,0.09773442149162292,-0.4386521279811859,-0.10602746158838272,-0.049162521958351135,0.25784897804260254,0.9485360383987427,0.6016697883605957,1.4205985069274902,0.6033506989479065,-0.8061513304710388,-0.02920343726873398,-0.7518518567085266,-0.39348268508911133,-0.10110962390899658,0.877262532711029,-0.5219181180000305,0.4584091901779175,0.6563795208930969,0.4648911952972412,0.557711660861969,-0.20737777650356293,0.35959532856941223,-0.7176080346107483,-0.5467138886451721,-0.7980066537857056,-0.3858145773410797,0.416341632604599,0.7519309520721436,-0.5569103956222534,-0.962757408618927,-0.4391753077507019,-0.9983393549919128,-0.711625874042511,0.5047435164451599,0.21038483083248138,1.0997185707092285,-0.9416801333427429,0.8841849565505981,0.20979170501232147,0.06766974180936813,0.1541336625814438,0.09185945987701416,0.4579496681690216,-0.31929847598075867,0.26335036754608154,-0.204579159617424,-0.32256969809532166,0.21077068150043488,-0.43248146772384644,0.3873634934425354,-0.30196642875671387,-0.02828706055879593,-0.07144133001565933,-0.2154388129711151,-0.07976393401622772,-0.5319527387619019,0.3784714937210083,0.7995692491531372,0.16097965836524963,-0.27144473791122437,-0.2356576919555664,0.07417077571153641,0.6608293056488037,1.0618327856063843,0.7616217136383057,0.5939901471138,-0.1714874505996704,0.4774326980113983,-0.868991494178772,-0.6046586036682129,-0.6381725072860718,-0.5046821236610413,0.5141173601150513,0.6076048612594604,-0.9074715375900269,-1.034691572189331,-0.35676199197769165,-1.319062352180481,-0.5721191167831421,0.5566858649253845,0.3789256811141968,0.7729036211967468,-1.0301215648651123,0.8227178454399109,0.14571581780910492,0.1838504523038864,0.3782214820384979,0.31246235966682434,0.2554171085357666,-0.2659305930137634,0.16163308918476105,-0.1220838874578476,-0.30110305547714233,-0.1418696790933609,-0.7315210103988647,0.19504112005233765,0.06390798836946487,-0.07663623243570328,-0.2610745131969452,-0.11594198644161224,-0.32026466727256775,-0.47607147693634033,0.23937448859214783,0.3976377546787262,0.32435715198516846,-0.2506326138973236,0.7397907376289368,0.1561991572380066,0.40384429693222046,0.35170769691467285,-0.8936735987663269,0.4594098925590515,0.07438971847295761,0.5779328346252441,-0.05991746857762337,-0.3799884021282196,-0.2034742683172226,-0.8066914677619934,0.8005426526069641,-0.06578930467367172,-0.1674734503030777,0.11251530051231384,0.04450160264968872,0.3194684386253357,-0.5339340567588806,0.7926868796348572,0.23211826384067535,0.2821771800518036,0.15838399529457092,0.29549357295036316,-0.0014141901629045606,0.28557270765304565,0.28442713618278503,0.1019095778465271,-0.07748858630657196,-0.1885572373867035,-0.3544412851333618,-0.005687210708856583,-0.03656529635190964,-0.047007475048303604,-0.25954142212867737,-0.25894153118133545,-0.0590239018201828,-0.11431960761547089,-0.22092726826667786,-0.06001238897442818,-0.368915855884552,0.10697611421346664,-0.06899340450763702,0.09569765627384186,0.33616945147514343,-0.1515466719865799,0.052072517573833466,0.11077866703271866,-1.3536343574523926,-1.0271457433700562,0.261584609746933,-0.7644007802009583,0.5774272084236145,-0.7079939246177673,-0.012239158153533936,1.1188504695892334,-0.7952767014503479,-0.14618627727031708,-0.871759831905365,0.15442317724227905,0.1584818810224533,-0.19845834374427795,0.6263020634651184,0.07100262492895126,0.9591577649116516,-1.0094819068908691,0.24239124357700348,-0.025544166564941406,-0.1335563361644745,0.8248480558395386,-1.6519134044647217,0.16983240842819214,0.4892514944076538,-0.8997706770896912,0.5104518532752991,0.3012841045856476,0.5965934991836548,0.011148643679916859,-0.5182925462722778,-0.4185313582420349,-0.8765507936477661,0.8775998950004578,0.17099153995513916,-0.2141774445772171,0.09440787881612778,0.2887931168079376,0.6510193943977356,-0.4958967864513397,0.7501987814903259,-0.10711042582988739,0.2114707976579666,0.020705455914139748,-0.16697224974632263,-0.17923519015312195,-1.081349492073059,-0.8220881819725037,-0.3327787220478058,0.3894125819206238,0.963126003742218,0.2892800569534302,-0.04298759996891022,-0.23652411997318268,-0.561370849609375,0.32424038648605347,-0.1515405774116516,0.24202442169189453,0.5336036086082458,0.18102839589118958,0.9109715819358826,0.4644651710987091,0.7818911075592041,-0.7482829093933105,-0.8434308171272278,-0.8159365057945251,-0.3429887890815735,-0.5034066438674927,-0.7050850987434387,0.030726343393325806,0.14603596925735474,0.777592122554779,-0.9014825820922852,0.06977749615907669,-0.8550525903701782,-0.8889891505241394,0.5109044313430786,0.6014317870140076,0.7488700151443481,-0.529322624206543,-0.5918276906013489,-0.9379222989082336,-0.9243550300598145,0.5921925902366638,-0.8129024505615234,0.8696167469024658,0.007369964383542538,-0.6623220443725586,0.35443544387817383,0.012807456776499748,-0.2271687090396881,0.0034269378520548344,-0.41209477186203003,0.4591197967529297,0.14451462030410767,-0.3485504984855652,0.45033949613571167,-0.08664706349372864,0.2761363387107849,0.7601681351661682,-0.5315330028533936,0.24258720874786377,-0.4067148268222809,0.6419626474380493,0.23385454714298248,-0.44829869270324707,0.3330811858177185,0.07909240573644638,-0.9545422196388245,-0.5322251319885254,-0.7226170897483826,-0.27220073342323303,-0.6376187205314636,-0.5538804531097412,-0.03593488782644272,0.7084341049194336,0.6259777545928955,0.5953176021575928,1.0030529499053955,-0.5153189897537231,0.8139322400093079,-0.34424057602882385,-1.5320351123809814,-1.018540859222412,-0.8325478434562683,0.5573149919509888,0.9352259635925293,-0.3925415277481079,-0.7152650952339172,-0.5799338817596436,-0.5416879653930664,-0.9039133191108704,0.6345558166503906,0.4637172818183899,0.4027988910675049,-0.6760168075561523,0.5401011109352112,0.3056923449039459,-0.4647529125213623,-0.3485383093357086,-0.7910072803497314,0.18611760437488556,0.31188005208969116,0.37399032711982727,1.7188206911087036,0.029917370527982712,0.2524387836456299,-0.3245609402656555,0.006204902194440365,-0.6159198880195618,1.5939332246780396,1.193652868270874,0.43838074803352356,1.5104637145996094,-0.646662712097168,0.04642174020409584,0.18611681461334229,-0.8664790391921997,0.8498769402503967,0.8562440276145935,-0.2578771114349365,0.24038340151309967,-0.0028583912644535303,1.3511868715286255,0.2984444797039032,-0.0929943174123764,0.565462589263916,-0.1834094375371933,-1.2174766063690186,-0.9816928505897522,-0.3586772680282593,0.5099828243255615,0.04715320095419884,0.03759053722023964,-0.3245861828327179,-0.1433601826429367,-0.1611827313899994,0.18617533147335052,0.5342490673065186,0.5898147225379944,-0.4071875214576721,-0.0465688556432724,0.45263949036598206,-0.2638995051383972,0.1619701385498047,0.2288319170475006,0.1638856828212738,0.7589845657348633,0.5510267615318298,0.7255735993385315,0.6947098970413208,-0.9505392909049988,-1.0516290664672852,-0.6004226803779602,0.5602179169654846,0.37619271874427795,0.8106034398078918,-0.04399212449789047,-0.21050751209259033,-0.0331130288541317,-1.101082444190979,0.46911874413490295,0.4372459053993225,-0.15433020889759064,0.06689556688070297,0.8248374462127686,-0.46606045961380005,-0.3916911482810974,0.2567426860332489,0.7302075624465942,0.018025336787104607,0.5385733842849731,0.22989073395729065,0.7113067507743835,0.17803102731704712,0.04110882431268692,0.907470166683197,0.03600414842367172,0.21528229117393494,0.6678116917610168,0.1673985868692398,-0.026819530874490738,0.5576139092445374,-0.25483644008636475,-0.29002442955970764,-0.8415713310241699,-0.03847487270832062,-0.061913520097732544,0.04990731552243233,-0.0003290583554189652,-0.8505768775939941,-0.9345111846923828,-0.7906904220581055,-0.26323142647743225,0.21138150990009308,-0.009328479878604412,1.3295048475265503,0.5605286955833435,0.2161116600036621,-0.01564444787800312,-0.15892721712589264,-0.918519139289856,1.322104573249817,0.8919763565063477,0.09848463535308838,1.361700415611267,0.14591529965400696,-0.4812888503074646,0.15467563271522522,-0.9633263945579529,1.0402107238769531,-0.6847938895225525,-0.6789742112159729,0.6024479269981384,0.7855416536331177,0.062270037829875946,1.3891795873641968,-0.4231904149055481,0.49051159620285034,-0.6187060475349426,-1.4669371843338013,-1.0259603261947632,-0.46327099204063416,0.7826938033103943,0.675911545753479,-0.33019816875457764,-0.5985738635063171,-0.544929027557373,-0.49713578820228577,-0.6647484302520752,0.5977381467819214,0.2584575116634369,0.2624914348125458,-0.9218273758888245,0.46295496821403503,0.16464751958847046,-0.3860211968421936,-0.05103040859103203,0.11003372073173523,0.40192604064941406,0.018731793388724327,0.30548006296157837,0.8823269605636597,0.023837966844439507,0.6355118751525879,-0.5819345116615295,0.34798067808151245,-0.8137887716293335,1.2202820777893066,0.9668338894844055,-0.20651760697364807,0.4496370553970337,-0.5901627540588379,-0.1665671318769455,0.4688403904438019,-0.7130701541900635,0.7824040055274963,1.001205563545227,-0.6668265461921692]},"forgetHidden":{"rows":20,"columns":20,"weights":[0.4067610800266266,-0.6918462514877319,-0.18639472126960754,-0.800502598285675,0.30002933740615845,0.8702690005302429,-0.0619153156876564,0.8414171934127808,0.9351786971092224,-1.8574761152267456,-0.9417462944984436,0.26939505338668823,-0.91818767786026,-0.17410682141780853,-0.34874504804611206,0.14073023200035095,0.6213783621788025,1.673384666442871,1.6501245498657227,0.7339799404144287,0.22793439030647278,-0.06659648567438126,0.5279069542884827,0.03082154132425785,-0.40943121910095215,0.33986696600914,-0.35331645607948303,-0.0038836109451949596,0.2610325515270233,-1.1855189800262451,-0.01178158912807703,-0.16890522837638855,-0.6162713170051575,-0.2857509255409241,-0.4061014950275421,0.33296242356300354,-0.08101752400398254,0.86253821849823,0.776702344417572,0.947404146194458,0.5490456819534302,-0.4234296977519989,0.41867607831954956,-0.6921967267990112,-1.246159553527832,0.7246729731559753,-0.07470189779996872,-0.3700176477432251,0.5213491320610046,-0.38087213039398193,-0.32209888100624084,0.3586030602455139,-0.8091230392456055,1.1452151536941528,-1.36102294921875,-1.0257182121276855,-0.2985215187072754,0.8168889284133911,0.6471330523490906,-0.36037248373031616,-0.3062715232372284,0.30812299251556396,0.5026798844337463,0.29943540692329407,0.033925823867321014,0.38099658489227295,-0.5016364455223083,-0.3981904983520508,0.13070644438266754,-0.1562192738056183,-0.1157754436135292,-0.17165648937225342,-0.8004574775695801,-0.4773101806640625,-0.24914643168449402,0.43014854192733765,-0.4169236719608307,0.3081173300743103,0.7348870038986206,0.9362406134605408,0.0819096639752388,-0.12949705123901367,0.9343292117118835,-0.3392781615257263,-0.4002898931503296,-0.26285046339035034,-0.7493909001350403,-0.1640564203262329,0.17589305341243744,0.24276956915855408,-0.5602713823318481,-0.018252570182085037,-1.2064508199691772,0.35846254229545593,-1.1865193843841553,-0.12419811636209488,0.12870453298091888,-0.3980647623538971,0.9624037146568298,1.3512966632843018,-0.14820091426372528,0.08929559588432312,0.3407103419303894,-0.040903184562921524,0.10520905256271362,-0.6291142702102661,0.13347747921943665,-0.04972466081380844,-0.5221847295761108,0.7244614958763123,-0.19848689436912537,-0.11172424256801605,0.5222968459129333,-0.07318323105573654,0.1880740225315094,0.1543344110250473,0.026658831164240837,-0.8585087656974792,-0.44409382343292236,0.5230965614318848,0.5086907148361206,-0.49078041315078735,1.351048469543457,-0.6190769672393799,-0.357857346534729,-0.5818254351615906,-0.4512929320335388,0.4409692585468292,-0.29332172870635986,-0.11317574232816696,-0.5897192358970642,0.5867578983306885,0.08484455198049545,0.47125691175460815,-0.27087417244911194,-0.3708617091178894,0.5326871275901794,0.3092535138130188,0.31795862317085266,0.38553565740585327,0.948897659778595,-0.8892104029655457,1.0315483808517456,-0.8857895135879517,-0.8776859641075134,0.17463018000125885,-0.47064435482025146,1.2473747730255127,-0.31161829829216003,0.07473175972700119,-0.4182562232017517,0.6858555674552917,0.6851606965065002,1.1454070806503296,-0.1005198061466217,-0.8322141766548157,0.7359951734542847,0.43690744042396545,-0.5688167214393616,0.13606737554073334,0.14958426356315613,-0.056383226066827774,-0.4598373770713806,-0.16825197637081146,0.7089747190475464,-0.39365965127944946,0.12663868069648743,-0.06653914600610733,-0.3962262272834778,0.51693195104599,-0.2755294740200043,0.07485970854759216,0.5469933152198792,0.07584076374769211,0.35189324617385864,-0.05005938559770584,0.37001538276672363,-0.39309078454971313,-0.09718047082424164,-0.5948584675788879,-0.49341750144958496,0.3829859793186188,0.3840706944465637,0.4105736315250397,0.38048243522644043,-0.510881245136261,0.18977871537208557,0.3668467402458191,-0.7879058718681335,0.41595757007598877,0.5561074018478394,0.35198283195495605,0.48050013184547424,0.5957295894622803,-0.2947339415550232,0.19556130468845367,-0.3596542775630951,-1.0567668676376343,-0.846439778804779,0.3850973844528198,-0.4057528078556061,1.0185656547546387,-0.2399711161851883,0.4778275787830353,0.777195394039154,-0.9750056266784668,-0.1227656677365303,0.07226873189210892,-1.2487218379974365,1.7080225944519043,1.7549322843551636,-0.28885161876678467,0.5101314783096313,-0.6616453528404236,0.5966587662696838,0.8505651950836182,0.5319811701774597,-1.0251609086990356,-0.2089768797159195,-0.2338980883359909,0.2810642421245575,-0.6770018935203552,0.5410507321357727,-0.950267493724823,-0.476453572511673,-0.021661857143044472,-0.518933117389679,0.7265210747718811,0.03222637251019478,0.4551113545894623,0.31282320618629456,0.12157190591096878,-1.3962128162384033,0.22515341639518738,-0.8050649166107178,-0.10172427445650101,0.3117626905441284,0.7357379794120789,1.355820894241333,1.348764419555664,0.7639731168746948,-0.6481583714485168,0.6067172884941101,-0.8849677443504333,-0.6251289248466492,0.3958744704723358,-0.7098239660263062,0.4612995684146881,0.39823707938194275,0.07973720133304596,-1.4961448907852173,0.11244677007198334,-0.4252355992794037,0.6538572311401367,0.15894994139671326,-0.3544808030128479,1.1561380624771118,1.548007845878601,0.73476642370224,-0.13301579654216766,0.07613330334424973,-0.028223916888237,-0.36350786685943604,-0.18193629384040833,0.48255613446235657,0.5061318874359131,0.018880454823374748,0.7681445479393005,0.5400056838989258,-0.28305378556251526,-1.0153558254241943,0.5642386078834534,-0.5636600255966187,0.2454632669687271,-0.5735785961151123,-0.06252945959568024,0.24784481525421143,0.39033809304237366,0.5868170261383057,0.43489283323287964,1.2402913570404053,-1.0205727815628052,-0.22713817656040192,-0.9110637307167053,-0.7659046053886414,0.18371640145778656,-0.7500813007354736,0.735503077507019,-0.20015442371368408,1.5449085235595703,0.2552271783351898,1.0365256071090698,0.697158932685852,1.594101905822754,0.024594226852059364,-1.059424638748169,0.648857593536377,-0.6391544938087463,-0.842989444732666,-0.8472119569778442,0.5661616325378418,-0.4554755389690399,0.19230034947395325,-0.5879549980163574,-0.5397690534591675,0.333688348531723,-0.42556968331336975,0.5269021987915039,0.13099774718284607,-0.3446233570575714,-0.1217692568898201,0.5253496170043945,0.027070697396993637,0.5621175765991211,-0.3216133713722229,-0.6164676547050476,0.48286354541778564,-0.05781968683004379,-0.08691083639860153,0.40577685832977295,1.1867121458053589,-0.6230409145355225,-0.39779308438301086,-0.6670336723327637,-0.7842317819595337,0.6989620327949524,-0.24701367318630219,0.5930704474449158,0.37295863032341003,-1.344751000404358,-0.4979991316795349,0.9141464233398438,-0.16138380765914917,1.0204590559005737,-0.5201097726821899,-0.8503710627555847,0.4076315462589264,0.9048898220062256,0.40619054436683655,-0.4739449918270111,0.26301226019859314,-0.22547948360443115,-0.5812230706214905,-0.029951931908726692,0.5298544764518738,-0.7326490879058838,0.4992712438106537,0.36546534299850464,-0.4359053671360016,1.050796389579773,0.6109715700149536,0.4109422564506531,0.3244439959526062,0.3451403081417084,-0.7685046792030334,-0.12351320683956146,0.14003980159759521,-0.6931262612342834,-0.8028938174247742,-0.22847828269004822,0.8470271825790405,-0.7688136100769043,0.6731972098350525,-1.0552884340286255,-1.062016248703003,0.11312907934188843,-0.4770118296146393,-0.06357955187559128,-0.36417025327682495,0.5841342806816101,0.24464751780033112,-0.31837764382362366,-0.9685530066490173,0.43422845005989075,-0.683989942073822,-0.0444343127310276,0.7016088962554932,1.2585903406143188,1.3102242946624756,0.6313936114311218,0.024409160017967224,-1.1168193817138672,-0.20795653760433197,-1.1697863340377808,-1.2841401100158691,0.5439808368682861,-0.746145486831665,0.23273397982120514,0.6663967967033386,-0.0708342045545578,-1.4218875169754028,-1.00205659866333,-1.4754102230072021,-0.14360401034355164,-0.27063289284706116,0.5046592950820923,-0.19116976857185364,-0.05941653624176979,0.9158021807670593,0.8388870358467102]},"forgetBias":{"rows":20,"columns":1,"weights":[0,0,0,0,0,0,0,0,0,0,0,0,0,0,0,0,0,0,0,0]},"outputMatrix":{"rows":20,"columns":23,"weights":[-1.2366911172866821,-0.5952138304710388,-0.6049608588218689,-0.44555985927581787,1.2697876691818237,-0.44213438034057617,0.6928502321243286,0.39969903230667114,-0.34164974093437195,0.7861267924308777,-0.5776335000991821,0.07856329530477524,0.737820565700531,0.1924324780702591,0.9690372347831726,0.7630937099456787,0.45662593841552734,-0.8368266224861145,-0.5605607032775879,-0.9017367959022522,0.200637549161911,-0.673622727394104,-1.151478886604309,-0.9849013686180115,-0.991945207118988,-0.8871745467185974,-0.5496509671211243,1.0618088245391846,-0.5894818305969238,1.1863877773284912,0.5988042950630188,-0.12515941262245178,0.5066588521003723,-0.5510889887809753,-0.12964731454849243,1.103697419166565,0.5253645777702332,0.7687063813209534,0.8149731159210205,0.09212873131036758,-0.587186872959137,-0.36585623025894165,-1.1971696615219116,0.5190405249595642,-0.17623117566108704,-0.8248146772384644,0.6645283699035645,0.925467312335968,0.8992546796798706,0.13815024495124817,-0.4382878541946411,-0.32518571615219116,-0.8797726035118103,-0.005785306915640831,-0.5337018966674805,0.5011041164398193,0.32844361662864685,0.9287061095237732,-1.4830492734909058,-1.256546139717102,-0.4773973226547241,-1.1077066659927368,0.4641727805137634,0.5290127396583557,-0.4090007245540619,1.170712947845459,-1.4311741590499878,-0.7243671417236328,0.968110203742981,-0.9676795601844788,-0.2738414406776428,0.02154184877872467,-0.37712207436561584,0.11188122630119324,-0.8475492000579834,0.4083521366119385,0.13551709055900574,-0.3681703507900238,0.32470592856407166,-0.8278471231460571,-0.2630651891231537,0.7742683291435242,-0.320406436920166,-0.1356363594532013,-0.002931301947683096,0.2435470074415207,-1.3622310161590576,0.3282596170902252,-0.8406330347061157,0.25304940342903137,-0.5157567262649536,-1.2498692274093628,0.3723929226398468,0.4471898376941681,0.7649029493331909,0.44467249512672424,-0.1609058976173401,-0.3596673011779785,-0.8301413059234619,-0.7042555212974548,-0.7135658264160156,1.3231995105743408,-0.23506782948970795,0.6354831457138062,-0.9784227013587952,-1.4635244607925415,0.056388214230537415,-1.3933700323104858,0.5180253982543945,-0.1162463054060936,-0.5313010215759277,0.6539525389671326,-1.3208378553390503,-0.5501103401184082,0.34341681003570557,1.2227734327316284,0.8386977910995483,-0.5812373757362366,1.0002901554107666,-0.6698920130729675,1.0112460851669312,-0.9001935124397278,-0.6953192949295044,-0.45394930243492126,-0.7317562103271484,1.2240030765533447,0.242656871676445,-0.5828901529312134,-0.6241113543510437,-1.1270294189453125,-0.22513027489185333,-0.6876876354217529,0.6391640305519104,0.8650707602500916,1.0366520881652832,-0.3784705400466919,-0.24881164729595184,0.41809701919555664,1.0222994089126587,0.7348184585571289,0.804336667060852,0.37083619832992554,-0.6047931909561157,0.13679635524749756,-0.5656428933143616,-0.6256452798843384,-0.37946322560310364,0.7567379474639893,0.338464617729187,0.7965936064720154,-0.9215540289878845,-1.0350525379180908,-1.0774825811386108,-1.2365370988845825,0.6074000597000122,0.5531958937644958,-0.5807516574859619,1.149619221687317,-1.0070691108703613,-0.806496798992157,1.3039259910583496,-1.1213473081588745,-1.1352729797363281,-1.2653295993804932,-0.7105883359909058,1.617851734161377,0.2557840943336487,1.2909331321716309,0.28284886479377747,-0.25050613284111023,-0.26284700632095337,-0.7099373936653137,-0.3310224413871765,1.3041313886642456,0.8052545189857483,1.075241208076477,1.5817745923995972,-0.0586513951420784,-0.6317098140716553,-0.47626635432243347,-1.3820322751998901,0.7725637555122375,0.09146389365196228,-1.2301534414291382,0.48497578501701355,0.6579523086547852,-0.952153742313385,0.7196412086486816,-0.11412700265645981,0.9736168384552002,-0.6712086796760559,-1.0404971837997437,-1.167324185371399,-1.2546690702438354,0.5204718112945557,0.41747578978538513,0.33286431431770325,-0.471392422914505,-0.6394944787025452,-0.06255542486906052,-1.3723371028900146,0.2676839828491211,0.9566609859466553,0.7190116047859192,-0.0727672427892685,0.18390604853630066,-0.19162292778491974,-0.2505016028881073,0.16102701425552368,-0.5609455108642578,1.169866681098938,0.8679085373878479,1.0788178443908691,0.16084258258342743,-0.7712206840515137,-0.8450793623924255,-0.8897162675857544,0.7685350775718689,0.6958065032958984,0.18809747695922852,-0.011456302367150784,0.4394383430480957,0.3147575259208679,-0.9503833651542664,-0.06018828973174095,-0.45311930775642395,-0.1563662886619568,-0.6324687004089355,-0.13501359522342682,-0.8858391642570496,0.10410533100366592,0.12860658764839172,-0.2549019455909729,-0.1419682800769806,0.8200189471244812,-0.28151577711105347,-0.29860907793045044,-0.27147576212882996,0.23773054778575897,0.48911598324775696,-0.33761072158813477,-0.22735649347305298,-0.06445255875587463,-0.15078791975975037,0.6537061929702759,-0.09862063080072403,1.0867912769317627,-0.14964580535888672,-0.24812756478786469,0.055273618549108505,0.09111613035202026,0.26996731758117676,-0.15289920568466187,-0.6276785731315613,-0.9660031795501709,-0.7435476183891296,-0.5115418434143066,0.884300947189331,0.044661350548267365,0.9774538278579712,0.5061812996864319,0.049967579543590546,0.31108358502388,-0.6697845458984375,0.03176747262477875,1.0917720794677734,0.37191304564476013,0.7709581851959229,1.1304229497909546,-0.4163268506526947,-0.5096078515052795,-0.4698476493358612,-1.1727492809295654,0.52116858959198,0.29228267073631287,-0.5997446179389954,-0.9205150604248047,-1.0099750757217407,0.25163593888282776,-1.0006486177444458,0.4843924939632416,-1.034458041191101,0.809291422367096,1.097317099571228,0.25014975666999817,0.8881398439407349,-1.2917184829711914,-0.261003315448761,0.4593580961227417,0.24822406470775604,0.930288553237915,0.21016773581504822,0.5835952162742615,-1.3482763767242432,-0.42919039726257324,-0.6218856573104858,0.09136709570884705,0.22161881625652313,-0.7030540108680725,-0.9644623398780823,-1.3718481063842773,-0.7359469532966614,-0.4136766195297241,0.4160555601119995,-0.393553227186203,0.9979419112205505,0.5209980607032776,0.27583709359169006,0.7710663080215454,-0.7796761989593506,-0.3879927396774292,1.0864421129226685,0.5298561453819275,0.5371337532997131,1.071164608001709,0.35631263256073,-0.9447667002677917,-0.4174326956272125,-1.3161178827285767,0.6237011551856995,-0.15174733102321625,-0.6888784766197205,-1.32779061794281,-1.0292519330978394,-0.6046332716941833,-0.6717901825904846,0.43249955773353577,-0.9004399180412292,1.068355679512024,0.5937695503234863,0.2137477546930313,0.7850741147994995,-1.0257049798965454,-0.5673578381538391,1.13517165184021,0.8564909100532532,0.5386507511138916,1.1306736469268799,0.8839941024780273,-1.6050461530685425,-0.6952109932899475,-1.2319893836975098,0.8903051018714905,-0.36809831857681274,-0.6564750075340271,-0.7755556702613831,-0.5917622447013855,-0.5963502526283264,-0.5992516279220581,1.3288246393203735,-0.3459951877593994,1.0937424898147583,0.2766343057155609,-0.21154406666755676,0.5609943866729736,-0.5980281829833984,0.14400255680084229,1.10543954372406,0.23071999847888947,0.857417643070221,1.116908311843872,0.07219979912042618,-0.5559659004211426,-0.5471255779266357,-0.8945255279541016,0.34564444422721863,0.2036743313074112,-0.8547893762588501,-0.35043567419052124,-0.07826730608940125,0.5420713424682617,0.09682546555995941,1.1534428596496582,0.31362566351890564,0.9284284114837646,-0.14660429954528809,-0.6269403696060181,0.5629979968070984,-0.25115278363227844,0.4049489498138428,0.6937421560287476,0.09075135737657547,0.45482534170150757,0.8494292497634888,-1.010521411895752,-0.16501681506633759,-1.7888246774673462,-0.3716558814048767,-0.0950590968132019,-0.9055739045143127,-0.21647141873836517,-0.7631706595420837,-0.7487326860427856,-0.27287155389785767,0.9701847434043884,1.746691346168518,1.0446381568908691,0.8563036918640137,-1.1041470766067505,-1.2628633975982666,0.040512606501579285,0.38626936078071594,0.7718746662139893,0.9397010803222656,0.3080975413322449,0.8891162276268005,1.3385746479034424,-0.6686840057373047,0.055626921355724335,-1.1658698320388794,-0.7839582562446594,-0.3948521912097931,0.6118006706237793,-1.1546359062194824,-0.8801982998847961,-1.121658205986023,-0.2952849566936493,-0.7210456132888794,0.6424151659011841,-0.7008633613586426,0.13621976971626282,0.591417133808136,0.5783078074455261,0.2825990915298462,-0.7621192932128906,-0.6619715094566345,0.7854536771774292,1.078063726425171,0.7845959067344666,0.31808018684387207,0.880729079246521,-0.8546425104141235,0.04585824906826019,-1.276529312133789,0.9114172458648682,0.836947500705719,-0.7330833077430725,-0.18367257714271545,-0.3337174952030182,0.2377747893333435,-0.08316744863986969,-0.20670098066329956,-0.3476380407810211,0.1222955584526062,0.7561256289482117,0.08312739431858063,1.3898276090621948,0.06400271505117416,-0.4661470949649811,-0.35269349813461304,0.24540174007415771,-0.4302481710910797,0.09443389624357224,0.9516327977180481,0.25937122106552124,-0.16766764223575592,0.31858277320861816,0.3398747444152832,-0.8382214307785034,0.256812185049057]},"outputHidden":{"rows":20,"columns":20,"weights":[0.41201508045196533,-0.5001749396324158,-0.10934537649154663,-0.549060583114624,-0.10184399783611298,0.3122974932193756,-0.05841138958930969,0.5389264225959778,0.2950436472892761,-0.18140527606010437,-0.20726138353347778,0.6016328930854797,0.09274079650640488,0.6955149173736572,0.007810276001691818,-0.6197136044502258,0.641691267490387,-0.04838074371218681,-0.11823450773954391,-0.35384222865104675,0.5453737378120422,-0.4548835754394531,-0.2656075060367584,-0.4373372197151184,0.10230883210897446,0.27303117513656616,0.009982743300497532,0.4013405442237854,0.2733307480812073,-0.6967958807945251,-0.49864721298217773,0.6517816781997681,0.3740175664424896,0.5734208822250366,-0.06836305558681488,-0.4433029294013977,0.6566841006278992,-0.5129728317260742,-0.4785577952861786,-0.15337423980236053,0.38133111596107483,-0.05969282612204552,1.0438731908798218,-0.4864165186882019,-0.3872854709625244,-0.6757700443267822,-0.10631817579269409,0.14670686423778534,-0.47883176803588867,1.7449982166290283,0.7610630989074707,0.3274708688259125,-0.8058180212974548,0.9178333878517151,-0.2955095171928406,-0.6554213762283325,0.3597334623336792,0.6424882411956787,0.6942675113677979,0.6403899192810059,0.8482123017311096,-0.8467908501625061,0.7665888071060181,-0.7142231464385986,-1.0647180080413818,0.10238727927207947,-1.0720964670181274,0.29229816794395447,0.37346896529197693,-0.512705385684967,-0.7482718825340271,0.7247459888458252,0.02081831730902195,0.9164668321609497,-0.15112516283988953,-0.9272705912590027,0.8312980532646179,-0.06807667762041092,0.08264696598052979,0.15917709469795227,0.13870051503181458,-0.2711590826511383,0.7192991971969604,-0.5109419226646423,-0.011796820908784866,-0.082074373960495,-0.5200361609458923,0.827987015247345,0.0945318192243576,-0.255671888589859,-0.15084464848041534,0.5177950263023376,0.9026192426681519,0.16531820595264435,0.7788630723953247,-0.08527839183807373,0.6451307535171509,0.1853579878807068,0.18912778794765472,0.33923664689064026,-0.5169990658760071,0.6973990797996521,-0.11256832629442215,0.7443087697029114,0.1701103299856186,-0.27349212765693665,0.6148796081542969,-0.7705273032188416,-0.05687513202428818,0.4594477713108063,-0.22604916989803314,-0.33944278955459595,0.822684109210968,0.08696727454662323,0.5295283198356628,0.05434466153383255,-0.9879833459854126,0.032319240272045135,-0.3476985991001129,-0.5206508636474609,0.054213471710681915,0.18780776858329773,1.0757472515106201,0.15430088341236115,-0.020634952932596207,-1.2971845865249634,0.8261286616325378,-0.5011834502220154,-0.8799030780792236,0.4881717562675476,1.2279072999954224,0.029477588832378387,-0.12246326357126236,0.33787447214126587,-0.5944235920906067,-0.28914710879325867,-0.28386908769607544,-1.2008410692214966,0.007579129189252853,1.2011408805847168,0.017943160608410835,0.2813723683357239,-0.2502651512622833,0.19595476984977722,0.4199862480163574,0.3269323706626892,0.0626261830329895,-0.01135678868740797,0.5805882215499878,-1.2777875661849976,-1.3925813436508179,1.1299797296524048,0.7422047853469849,0.3478562831878662,0.4707351624965668,-0.6533738970756531,0.3051329553127289,1.2311781644821167,-0.2008264809846878,-1.2345110177993774,-0.047279372811317444,1.1782933473587036,-0.07127010077238083,0.640932559967041,0.053102340549230576,-0.3918839991092682,1.1012932062149048,-1.8503066301345825,-0.30975574254989624,0.26544564962387085,0.5895402431488037,-0.6833903789520264,0.3120625615119934,0.22713631391525269,0.13401669263839722,0.05930567532777786,-0.8560658097267151,0.5990675687789917,0.38496431708335876,-0.3592659831047058,0.045492205768823624,0.7816207408905029,1.4400744438171387,0.7333821654319763,0.3019067049026489,-0.6791390180587769,1.7311899662017822,-1.8171271085739136,-0.5144603252410889,1.3933888673782349,-0.07265733927488327,-1.41881263256073,-0.2206145077943802,0.3978397846221924,-0.7007275223731995,-0.11424098908901215,-1.3882572650909424,0.13085775077342987,0.5324270725250244,0.7086543440818787,0.4154967963695526,-0.166896790266037,0.7713186740875244,0.5681636333465576,1.1144071817398071,-1.5441468954086304,-0.29879629611968994,0.5800504684448242,-0.530465304851532,1.009994387626648,0.48889920115470886,0.5311650633811951,2.593607187271118,0.6078435778617859,0.7354686260223389,-0.9834946990013123,-0.1130160540342331,-0.8051469326019287,-1.4174336194992065,-1.6773159503936768,0.16834628582000732,-0.10283276438713074,-0.09273874759674072,-0.20466740429401398,0.21352455019950867,0.1796671599149704,0.26322442293167114,0.21383219957351685,0.11378031224012375,-0.0016093446174636483,-0.19122852385044098,0.5761246085166931,0.32676374912261963,0.38848891854286194,0.3031350374221802,-0.26352399587631226,0.11128880828619003,0.1810263693332672,-0.5853415131568909,-0.3088768720626831,0.6185237169265747,-1.0512216091156006,0.26972123980522156,-0.7596753239631653,-0.30583733320236206,-0.05968359112739563,-0.6896906495094299,1.2602288722991943,0.16138482093811035,0.09249072521924973,-0.7879828810691833,0.7550815343856812,0.10604759305715561,0.41726601123809814,-0.09121516346931458,-0.44325491786003113,0.5713332891464233,0.6929599642753601,0.07112859189510345,-0.16275353729724884,0.18280313909053802,-0.28724387288093567,-0.3948630392551422,-0.23836518824100494,0.3337613344192505,0.1645139902830124,0.23701678216457367,0.4113396108150482,0.0786660686135292,-0.1543976217508316,-0.1583363562822342,0.735649585723877,0.5949106812477112,0.4581233263015747,0.13044334948062897,-0.3367084860801697,0.39592960476875305,-0.9317716360092163,-0.7165219783782959,-0.6432456970214844,0.21671637892723083,-0.4894068241119385,0.07612723857164383,-0.4099646806716919,-0.10813616216182709,-0.1005915030837059,-0.18849587440490723,0.6527928709983826,0.15244141221046448,-0.22268064320087433,0.3692108392715454,0.592251718044281,0.443858802318573,0.5114750266075134,0.06807371973991394,-0.6176485419273376,0.2132979780435562,-0.4206668436527252,-0.3818659484386444,0.09124936163425446,0.6780152320861816,-0.5875694155693054,-0.20057077705860138,-0.6488972306251526,-0.03202612325549126,0.47970736026763916,-0.32994672656059265,0.5659586191177368,0.4924423396587372,-0.7508295774459839,-0.378285676240921,0.6143621802330017,0.25573912262916565,0.5288962721824646,0.09037760645151138,-0.5313119292259216,0.7668089270591736,-0.19484880566596985,-0.44445785880088806,-0.20016832649707794,0.34035441279411316,-0.9348678588867188,0.5036385655403137,-0.5482607483863831,-0.30684131383895874,-0.13262806832790375,-0.34723103046417236,0.3122034966945648,-0.18120577931404114,-0.4666861295700073,-0.1792992800474167,0.5002922415733337,-1.0313531160354614,0.5573851466178894,-0.7016767859458923,-0.790441632270813,-0.010293797589838505,0.9120959043502808,1.104575753211975,0.7243798971176147,-0.04087842255830765,0.2108573019504547,-0.6941837072372437,0.6516755819320679,0.9997796416282654,-0.2357785552740097,0.8367356657981873,-0.30961114168167114,-0.20138601958751678,0.5569676756858826,1.4369871616363525,0.3298974633216858,0.0619608499109745,-0.14685873687267303,0.12876248359680176,-0.40075618028640747,-0.9908930659294128,-1.550414800643921,-0.31515347957611084,-0.8453919291496277,0.46959105134010315,-0.6087915897369385,0.5339054465293884,-0.6151692867279053,-0.8010222315788269,-0.16082580387592316,0.16270917654037476,0.6475976705551147,-0.3576105833053589,-0.14396332204341888,0.6259909868240356,0.7168720364570618,-0.6412933468818665,0.46220865845680237,-0.972998321056366,-0.2827368974685669,0.35357052087783813,-0.8161255717277527,0.7148029208183289,0.031478192657232285,1.5763523578643799,-1.1119970083236694,1.0874073505401611,-0.8108828067779541,-1.311150074005127,-0.456816166639328,-0.3432122766971588,-0.014033067971467972,-0.09141127020120621,-0.2636505365371704,0.8798202872276306,1.3245922327041626,0.42171186208724976,1.3934367895126343,-0.6546770334243774,-1.3493397235870361,0.673615574836731,-0.610052227973938,-0.3925781548023224,0.022643407806754112]},"outputBias":{"rows":20,"columns":1,"weights":[-0.2727956175804138,-0.2873934507369995,-0.6106554865837097,0.20587868988513947,-0.6454396843910217,0.3066425621509552,-1.1114357709884644,-0.6397320032119751,0.3056538999080658,0.3304382860660553,0.45902714133262634,-0.12947645783424377,0.3765227496623993,0.14819495379924774,0.39906951785087585,-0.5823650360107422,-1.4847151041030884,-0.32304272055625916,0.13022397458553314,0.014940474182367325]},"cellActivationMatrix":{"rows":20,"columns":23,"weights":[-0.6275539398193359,-1.1132229566574097,0.05623213201761246,0.3416597247123718,0.8630144000053406,0.5115724205970764,1.5722709894180298,-0.506189227104187,-0.9147189855575562,-0.45066410303115845,0.2507365047931671,-0.3034888803958893,1.694321870803833,1.193028211593628,0.6752634644508362,1.6064876317977905,-0.6816108822822571,0.40268513560295105,-0.447286456823349,-1.0636919736862183,0.48943132162094116,0.5318748950958252,-0.6704978346824646,-0.0803859680891037,0.017991071566939354,0.8402233719825745,-0.5536497235298157,0.08050793409347534,-1.152709722518921,-1.0657405853271484,0.5565677285194397,1.238574504852295,0.9875234365463257,-0.6077057123184204,-0.1758897304534912,-1.3061593770980835,-0.6825484037399292,0.17119312286376953,-1.045931339263916,1.1920342445373535,-0.5565639734268188,-0.42392969131469727,0.13530835509300232,-0.23758316040039062,-0.3336784243583679,0.025749584659934044,0.3029112219810486,0.3402867615222931,-0.02288706600666046,0.30410221219062805,-1.017877221107483,0.9810936450958252,0.33885136246681213,0.3958453834056854,0.281613290309906,-0.19872568547725677,0.7375301122665405,-0.7412531971931458,-0.6470640301704407,0.753363311290741,-0.8115530610084534,0.34314483404159546,-0.20681500434875488,0.7832754254341125,0.5866933465003967,0.6902474164962769,0.538392186164856,-1.021159052848816,0.9686445593833923,0.10166138410568237,-0.11921136826276779,1.0921008586883545,-1.0565836429595947,-0.3093198835849762,-0.8324561715126038,-0.9795586466789246,0.6434992551803589,0.8095044493675232,0.9224908947944641,-0.6928514242172241,-0.24863629043102264,-1.0663453340530396,-0.728847086429596,0.08868733048439026,-0.8138443827629089,1.0743334293365479,-0.4345845580101013,0.062330763787031174,0.32984399795532227,-0.1974465399980545,0.32225579023361206,0.31819528341293335,-0.22548861801624298,-0.3282946050167084,0.279666543006897,0.18655076622962952,0.40536579489707947,-0.5336220860481262,-1.0050686597824097,-0.5612536668777466,-1.1808968782424927,0.8900206089019775,-0.2804308831691742,0.9841297268867493,-0.8123213648796082,-1.137702226638794,0.29524850845336914,-0.8526468276977539,0.22661593556404114,-0.39582347869873047,-0.40255746245384216,-0.2234610617160797,-1.2454626560211182,-0.05237139016389847,-0.35075584053993225,-1.2513160705566406,-0.45643430948257446,-0.06825144588947296,-0.6697610020637512,0.4958690404891968,-1.079332709312439,-0.29764795303344727,0.416034996509552,-0.12437175959348679,0.3444238007068634,-0.7267037034034729,-0.2381017804145813,0.24712200462818146,0.5438278317451477,1.2240047454833984,-0.06804156303405762,1.2722980976104736,-0.862547755241394,0.3810928463935852,-1.0333918333053589,0.6562148332595825,-0.7458518147468567,-1.3497451543807983,0.4050206243991852,0.41385623812675476,-0.00891607254743576,-0.9558724761009216,-0.7965763211250305,-1.0781034231185913,-1.015612006187439,0.26648133993148804,0.49612683057785034,0.11547085642814636,-0.6525169610977173,-0.37974098324775696,-1.311814308166504,-0.7549890875816345,-0.5378085374832153,-1.0429368019104004,0.3653244376182556,-0.3781073987483978,0.7610083222389221,0.7056427001953125,0.1281701773405075,0.09741579741239548,0.5372979044914246,0.031343404203653336,0.43944165110588074,-1.265700101852417,0.8778423070907593,0.3560080826282501,1.223064661026001,0.2831785976886749,-0.5626254081726074,-0.1007949635386467,-0.9367477893829346,0.7676119208335876,0.14523856341838837,0.10429099202156067,0.6336631178855896,-0.04733101278543472,1.059761881828308,-0.48964783549308777,0.36311134696006775,0.09130162000656128,0.13084782660007477,0.11419212818145752,-0.6052168011665344,0.06118132919073105,-0.7461717128753662,-0.5282813310623169,0.3113153576850891,-1.9188780784606934,0.43784406781196594,-1.722585678100586,-0.16902199387550354,0.4158371090888977,0.7244319915771484,1.563522219657898,-1.1694401502609253,-0.05726778879761696,0.11826429516077042,0.5051579475402832,0.6661423444747925,-0.09733112156391144,1.8141611814498901,-1.049176573753357,-0.4936790466308594,-0.40557146072387695,0.5030325651168823,-0.10283321887254715,-0.6254895925521851,0.8912774324417114,1.1779755353927612,-1.15489661693573,0.589697539806366,-0.14797136187553406,0.5092098116874695,-0.26468220353126526,-0.904707133769989,0.011534464545547962,-0.6304963827133179,0.7846855521202087,-0.07627080380916595,-0.021987546235322952,-0.34104785323143005,-0.6399160623550415,-0.069771908223629,-0.3391483724117279,0.4581189751625061,0.15557578206062317,0.5857090353965759,0.09281466156244278,-0.2059786319732666,0.31715741753578186,0.020686516538262367,0.07698756456375122,-0.273572713136673,0.18759126961231232,-0.6908352971076965,0.44260039925575256,0.2799903452396393,-0.40829625725746155,0.27145951986312866,-0.7048493027687073,0.5186537504196167,-0.6455063223838806,0.3780956566333771,0.590569794178009,-0.31379878520965576,1.2228468656539917,-0.2391333431005478,0.3116365075111389,0.34003353118896484,-0.14974690973758698,0.7927297353744507,0.011912457644939423,0.2638947367668152,-0.6136155128479004,-0.7361471652984619,-0.5340574979782104,-0.177750825881958,0.8701905608177185,-0.2337435930967331,0.5056474208831787,0.42201605439186096,0.4445277154445648,0.2174462527036667,-0.2749634385108948,-0.535112202167511,0.6813403964042664,0.44056054949760437,0.7062627673149109,0.8897454738616943,0.08772806078195572,-0.4930007755756378,0.05861943960189819,-1.1023515462875366,0.5887916684150696,-0.18445424735546112,-1.1876708269119263,-0.07906190305948257,-0.5632151961326599,0.07786963135004044,-0.5488174557685852,-0.19858811795711517,-0.36832213401794434,0.2798251807689667,0.9107970595359802,0.09375706315040588,-0.19475826621055603,-0.1156025305390358,-0.33797919750213623,0.4046032428741455,0.3185814619064331,-0.21228685975074768,-0.35091841220855713,-0.3343631327152252,0.09262525290250778,0.5523778200149536,-0.4207031726837158,0.3627415895462036,0.706737756729126,-0.1011936292052269,-0.40132421255111694,-1.1933013200759888,-0.5679593086242676,0.03911298140883446,0.2619088292121887,0.1078723892569542,1.7022219896316528,-0.46592676639556885,0.30643898248672485,-0.28911370038986206,-0.032270293682813644,-0.8534322381019592,1.8796826601028442,1.6022602319717407,0.38025161623954773,1.429124116897583,-0.2576487064361572,0.12727339565753937,0.015488806180655956,-1.4302411079406738,1.304028868675232,1.0061180591583252,-0.704716682434082,0.7649705410003662,0.0030982985626906157,0.6779223680496216,-0.18657083809375763,-1.1266530752182007,-0.4290558695793152,-0.36822885274887085,-0.2576183080673218,-0.06478667259216309,0.16120152175426483,-0.38700440526008606,0.18729789555072784,-0.24223066866397858,-0.20158016681671143,-0.8141459822654724,-0.8404439687728882,0.366812527179718,-0.08823376148939133,0.34824517369270325,0.13888700306415558,-0.302498996257782,1.1465402841567993,0.5212686657905579,0.32171857357025146,0.4192447364330292,0.3397785723209381,0.200978621840477,0.10931500047445297,-0.7017483711242676,-1.1214184761047363,-0.19118589162826538,-0.2807637155056,0.5056251883506775,-0.05860888957977295,0.9581440687179565,-1.2485438585281372,-1.9160857200622559,-0.24069653451442719,-1.552356481552124,-0.02630830556154251,-0.07851195335388184,-0.16990460455417633,0.810641348361969,-1.4952657222747803,-0.9108162522315979,0.09062022715806961,-0.12440667301416397,0.07381834834814072,-0.8524439334869385,0.20337866246700287,0.14236408472061157,0.8881747126579285,0.5057020783424377,-0.25289711356163025,0.17203281819820404,-0.5995990037918091,0.34167590737342834,-0.19384334981441498,0.609917402267456,0.9302240014076233,0.06368759274482727,1.0898430347442627,-0.5795488953590393,0.05322347581386566,0.023478835821151733,-0.4233272075653076,0.7232369780540466,0.016824442893266678,-0.18407981097698212,-0.32808786630630493,-0.2711057960987091,0.5411655306816101,-0.623009979724884,1.0131504535675049,-0.7954040169715881,-0.3705686926841736,0.20342250168323517,-0.7704882621765137,0.4903382956981659,-0.8161244988441467,0.7930476665496826,-0.2304936796426773,-0.8394600749015808,0.9563196897506714,-0.9569632411003113,-0.06947076320648193,-0.4100736081600189,-0.6824166178703308,0.0104597806930542,-0.9116254448890686,0.27066439390182495,-0.7547494173049927,-0.21352510154247284,0.5056836605072021,-0.8283337950706482,0.49222880601882935,0.5301517248153687,0.7656197547912598,0.7566425800323486,-0.0636407732963562,-0.11696237325668335,-0.15751434862613678,0.4783838987350464,-0.10341805219650269,0.22545823454856873,0.25620219111442566,0.13837820291519165,0.8620998859405518,-0.6160904765129089,0.5475781559944153,-0.35792237520217896,0.3590531051158905,0.30412760376930237,-1.1122266054153442,-0.05790161341428757,-0.055263254791498184,0.6473135352134705,-1.0410066843032837,0.732252299785614,0.5888876914978027,0.6426400542259216,-0.5677173733711243,-0.8416040539741516,-0.6033374667167664,-0.7365074157714844,0.524813711643219,-0.16563862562179565,-0.7912288904190063,-0.006714494898915291,-0.062077898532152176,0.032053783535957336,-0.21175144612789154,0.5364556312561035,0.4612635374069214,0.9149552583694458,0.0059789749793708324,-1.3477795124053955,-0.18622121214866638]},"cellActivationHidden":{"rows":20,"columns":20,"weights":[-0.7560122013092041,0.49042046070098877,-0.6426777839660645,0.6267035603523254,1.0527197122573853,-0.5229984521865845,0.6495377421379089,0.39928343892097473,-0.45563021302223206,0.18369334936141968,-0.11271537095308304,-0.31436672806739807,0.42385926842689514,-0.8671295046806335,1.1733766794204712,0.5833167433738708,-0.3907800614833832,0.06703311204910278,-0.6151828765869141,-0.3616556227207184,0.4358813762664795,-0.532284677028656,0.493660569190979,0.01029271725565195,-0.4904780089855194,0.04209781438112259,-0.399882048368454,-0.4797600507736206,0.16656844317913055,0.08841818571090698,0.09854605793952942,0.3824167847633362,0.2774168848991394,0.5843952298164368,0.19855612516403198,-0.5221997499465942,-0.12099438905715942,-0.09355204552412033,0.04466492310166359,-0.2397557944059372,-0.44460391998291016,0.39849773049354553,-0.4964176416397095,0.23635250329971313,0.5628839731216431,-0.2994655966758728,0.4942217469215393,-0.4343176782131195,-0.2592693567276001,0.06746067851781845,0.4216794967651367,-0.37312930822372437,0.1348543018102646,-0.6580696105957031,0.49657177925109863,0.5023864507675171,-0.14171017706394196,-0.6424024701118469,-0.3010518550872803,-0.0407559834420681,0.5773317217826843,-0.40192872285842896,0.6039884090423584,-0.6750432252883911,-0.5299714207649231,0.017657898366451263,-0.9672252535820007,-0.06796872615814209,0.1357300728559494,0.43768197298049927,-0.8980969190597534,0.21442177891731262,-0.1201329305768013,0.48361846804618835,0.020908938720822334,-0.5460286736488342,0.4532634913921356,0.3890182673931122,0.3853285610675812,0.07634083181619644,0.3028295636177063,-1.0487719774246216,0.6898293495178223,-1.197291374206543,-0.8996138572692871,0.2171367108821869,-0.5971826314926147,1.2881373167037964,0.24601958692073822,0.09106706827878952,-0.17884784936904907,0.31056180596351624,-0.03428076580166817,0.36841151118278503,-0.5031150579452515,-0.22617976367473602,0.8120795488357544,-0.16719424724578857,0.3291592597961426,0.08687939494848251,0.40275338292121887,-1.4692645072937012,0.41747215390205383,-1.255727767944336,-0.730378270149231,-0.07490083575248718,-0.03174005448818207,1.0114694833755493,0.23879575729370117,0.22132675349712372,0.33016693592071533,0.04347395524382591,-0.8296034336090088,0.32541951537132263,-1.221692681312561,-0.28067609667778015,0.631891131401062,0.3265879452228546,0.48197421431541443,1.3310366868972778,-0.08785612136125565,0.5635374784469604,1.067107915878296,0.34415876865386963,-0.15893158316612244,-0.38444027304649353,-0.10476664453744888,-0.4999518096446991,-0.17302043735980988,0.41373127698898315,0.7298905849456787,-0.010648622177541256,-0.3714374303817749,0.1090695858001709,-0.23280008137226105,0.02209719829261303,0.12641628086566925,-0.3683181405067444,0.6615839004516602,0.7331738471984863,-0.380350798368454,0.04465465247631073,-0.7702779769897461,-0.061688169836997986,0.2805752158164978,-0.13589468598365784,0.26008033752441406,0.6889643669128418,-0.2364695519208908,-0.15047629177570343,0.2868015170097351,-0.4897935688495636,0.0019215283682569861,-0.42973119020462036,0.2312532216310501,0.36048150062561035,-0.04202114790678024,-0.6392882466316223,-0.3111545145511627,0.29209792613983154,-0.3255065977573395,-0.679435670375824,-0.4418465793132782,-0.5142131447792053,-0.0625060424208641,0.25550150871276855,0.36458295583724976,0.34494608640670776,0.1586276739835739,-0.19870878756046295,0.07090059667825699,-0.38312169909477234,-0.8348615765571594,-0.5470962524414062,0.02090202085673809,0.31180545687675476,0.46912965178489685,0.5655727982521057,0.38848090171813965,0.9167857766151428,-0.4172440469264984,0.7448370456695557,0.30088433623313904,0.7010941505432129,0.15716420114040375,-0.6158840656280518,0.23721592128276825,-0.5374482274055481,-0.4447735846042633,0.2943640649318695,1.0781341791152954,-0.04005224257707596,0.8885886669158936,-0.17388200759887695,0.8116923570632935,0.13969598710536957,-0.39631280303001404,-0.3457241356372833,-0.5318748950958252,-1.0811431407928467,-0.8195229172706604,1.1821925640106201,-0.4591243267059326,1.0602085590362549,0.8729385137557983,-0.3438168466091156,0.5508238673210144,-1.3692632913589478,-0.20939859747886658,-0.10787268728017807,-0.00010580310481600463,-0.42240530252456665,-0.0020354287698864937,-0.4554285407066345,0.3608265817165375,0.5193147659301758,-1.022781252861023,-0.31867268681526184,-0.06974594295024872,-0.02966722659766674,0.19462339580059052,-0.13414350152015686,-0.7587323188781738,-0.11320394277572632,0.598284900188446,-0.19244691729545593,0.42395398020744324,0.6553193926811218,-0.2324538677930832,0.3499085605144501,-0.5664405822753906,0.029774729162454605,0.8248183131217957,0.1970684826374054,0.496142715215683,-0.20338808000087738,-0.08873926848173141,-0.3578319251537323,-1.0281727313995361,-0.6434181332588196,0.9438128471374512,-0.7025904059410095,1.1846716403961182,-0.787878155708313,-1.2010561227798462,0.18004459142684937,-0.7648475766181946,0.3939124047756195,0.6251600980758667,-0.1827128827571869,0.28282997012138367,0.5235857367515564,-0.7958300709724426,1.155351996421814,-0.7851953506469727,-0.8054350018501282,0.5505586266517639,-0.9169372916221619,0.9111505150794983,0.808718204498291,-0.11682263016700745,0.23420381546020508,-0.21745844185352325,0.3674817979335785,1.0646939277648926,-0.43329280614852905,0.1823660284280777,0.2439892292022705,-0.12699349224567413,0.2611684501171112,-0.10945858061313629,0.21242962777614594,0.4624316096305847,-0.14880475401878357,0.5412139296531677,0.15473105013370514,-0.11561255156993866,-0.6607399582862854,-0.7331198453903198,-0.05145597085356712,0.6858918070793152,-1.0646605491638184,0.8572791814804077,-1.073470950126648,-1.233816385269165,1.0284886360168457,-0.9849323034286499,0.39491039514541626,1.5292409658432007,-1.2879647016525269,-0.6039304733276367,0.07867559045553207,-1.3962280750274658,0.764833390712738,-1.1015042066574097,-0.4717108905315399,0.6627123951911926,0.9322029948234558,1.383898377418518,0.995402991771698,0.09055158495903015,-0.16872771084308624,0.6817336678504944,-0.2518192231655121,-0.7058404088020325,0.1816186010837555,-0.4136607348918915,-0.10534362494945526,0.25814956426620483,0.12391152232885361,0.393625944852829,-0.05534815415740013,-0.2243877500295639,0.08545970171689987,-0.22662849724292755,-0.2351718246936798,0.25211071968078613,0.699091374874115,0.6021451354026794,-0.09524187445640564,-0.18960081040859222,0.24973812699317932,-0.885178804397583,0.005347525700926781,0.4642753303050995,-0.3411544859409332,0.4236152768135071,0.6105238795280457,-0.4366362690925598,-0.028464140370488167,-0.017743509262800217,0.05819043144583702,0.1053786501288414,-0.28083884716033936,0.5358974933624268,0.3121844232082367,0.27923986315727234,0.4244033694267273,-0.6386514902114868,-0.47946253418922424,-0.4412155747413635,0.058093708008527756,-0.20246095955371857,0.007171586621552706,0.21507900953292847,0.40121299028396606,-0.5963884592056274,0.06656354665756226,-0.020485717803239822,-0.23807892203330994,-1.576256513595581,0.22355321049690247,-0.10999779403209686,0.2557069957256317,0.15337331593036652,-0.38097527623176575,0.09902272373437881,1.6938565969467163,0.7380732297897339,0.6419609189033508,-0.6966821551322937,0.7499476075172424,-1.571227788925171,0.886592447757721,1.0927417278289795,-0.511992335319519,0.5610325336456299,-0.8267654776573181,-0.446841299533844,0.4538218677043915,-0.6760808229446411,-0.2503140866756439,-0.17216002941131592,-0.7731395363807678,0.4121164381504059,0.733246922492981,-0.7336848378181458,1.1858913898468018,-0.3487991988658905,-0.64105224609375,-0.7461365461349487,0.6660566926002502,-0.25673800706863403,0.7341237664222717,0.4393405616283417,-0.224081888794899,0.4595039188861847,-0.9907665252685547,-0.12991976737976074,0.04600490257143974,-0.5583055019378662,-0.4522900879383087,0.9336954355239868,-0.8599022030830383,0.6349976062774658,0.5464080572128296,-0.5281978249549866,-0.018948132172226906,-0.9426568746566772,-0.7595465779304504]},"cellActivationBias":{"rows":20,"columns":1,"weights":[-0.7525081634521484,0.3151348829269409,-0.20382606983184814,0.4325399696826935,0.02739383466541767,0.14237917959690094,0.13998359441757202,-0.0531570166349411,0.18967941403388977,-0.43285930156707764,-0.03861416503787041,0.8605652451515198,-0.31183695793151855,0.08228584378957748,0.05514327064156532,0.19487403333187103,-0.06641927361488342,-0.05113983899354935,-0.36726129055023193,0.4906514585018158]}},{"inputMatrix":{"rows":20,"columns":20,"weights":[0.5991038680076599,-0.7635672092437744,0.19934143126010895,0.5504229664802551,0.204050213098526,-0.6847156882286072,-1.864912986755371,1.2584961652755737,-0.26480239629745483,1.0311765670776367,0.016459666192531586,1.1734102964401245,0.706376314163208,0.9349619746208191,0.2091403305530548,-1.8359702825546265,1.4244500398635864,-0.5017454624176025,-0.4265706241130829,-0.3758469820022583,-1.3977549076080322,1.0296651124954224,0.5633017420768738,0.7575569152832031,0.09780129790306091,-2.2347402572631836,-0.1116490513086319,-0.8549582362174988,-2.284223794937134,0.7940764427185059,1.1225509643554688,0.8632926344871521,-0.997821569442749,-0.42241206765174866,0.44255438446998596,-0.4475525915622711,-0.15542951226234436,-1.6220341920852661,0.7150309681892395,0.4656265377998352,0.41069018840789795,-0.41815635561943054,1.0454390048980713,-0.14398756623268127,0.6679884791374207,-1.6154218912124634,1.1714482307434082,-1.1125928163528442,-2.1349058151245117,0.20269779860973358,0.7211228609085083,-0.43614333868026733,-0.8981910943984985,0.2729613780975342,-1.6694456338882446,-0.8412172794342041,0.31306368112564087,-0.3248213231563568,1.078597903251648,1.1336766481399536,-0.24567864835262299,0.31001725792884827,0.9556331634521484,0.31361061334609985,0.40159931778907776,-0.4466896653175354,0.17364126443862915,-1.2789306640625,-0.14645598828792572,1.053177833557129,1.0620673894882202,0.06676186621189117,-1.794614553451538,0.1900026500225067,-1.85745108127594,-0.4862191677093506,-0.5277343392372131,-0.3334251642227173,0.280477911233902,2.009883165359497,0.19536957144737244,-0.13757891952991486,0.9113553166389465,-0.4644327461719513,1.2071861028671265,-1.553643822669983,0.9054796695709229,-0.5641140341758728,-1.6572151184082031,1.6855137348175049,0.6358844637870789,-0.1624770164489746,-2.301708936691284,-0.7661386728286743,-1.3808141946792603,-0.17405956983566284,0.3386754095554352,0.042424872517585754,1.2605912685394287,3.304286241531372,0.02602314203977585,0.6432921290397644,0.4623774290084839,0.24712404608726501,-0.2839338183403015,-0.3987818956375122,-0.5051343441009521,-0.338044136762619,-0.14471010863780975,0.5387231707572937,0.03169281408190727,0.2218727320432663,-1.9501755237579346,-0.4218648672103882,-1.638466238975525,-0.3263469934463501,-1.2168922424316406,-2.7492079734802246,0.7819613218307495,1.1415938138961792,-0.10234370827674866,1.128274917602539,-0.9705560803413391,1.0362166166305542,1.4708993434906006,-0.6271267533302307,0.21777769923210144,-0.07205691188573837,-0.04398488998413086,-0.35947364568710327,-2.4203710556030273,0.8099107146263123,0.8758719563484192,-0.5498474836349487,0.32686617970466614,0.4945904612541199,0.0028968905098736286,1.0515048503875732,-0.6969918608665466,-1.1075032949447632,0.5556190013885498,-0.358330100774765,-0.08969651162624359,0.22552937269210815,-0.2391519695520401,-0.23294231295585632,-0.39918917417526245,0.13649575412273407,-0.8493080139160156,1.295904517173767,-1.7953355312347412,0.30608856678009033,0.5764380693435669,0.7203227281570435,1.6179341077804565,-1.7360416650772095,0.7271192669868469,2.7232866287231445,0.3457851707935333,-0.6471935510635376,-1.1571131944656372,0.8021397590637207,0.6205718517303467,0.0034509734250605106,0.8096142411231995,-2.752976655960083,1.8784255981445312,-2.7547152042388916,-2.459261655807495,1.064097285270691,0.05536448210477829,-0.5919958353042603,-2.1757211685180664,-0.3016313910484314,-1.238578200340271,0.401479572057724,1.6028529405593872,0.5625195503234863,1.4126955270767212,0.8560140132904053,0.21317075192928314,-0.1936417818069458,1.0184440612792969,0.2144678384065628,0.24338452517986298,-0.37428635358810425,1.1440953016281128,0.40954190492630005,-0.1830316185951233,0.45695507526397705,0.1335514336824417,0.7604581117630005,1.3512848615646362,0.3496774733066559,0.7381730675697327,-0.541926920413971,-0.023866984993219376,0.308553010225296,-0.48529890179634094,-0.8561373949050903,-0.06706912070512772,0.1633627861738205,-0.8831959366798401,0.2691458761692047,0.6052786707878113,-1.2420694828033447,0.4090813398361206,-0.9849671125411987,-1.0545607805252075,-0.14841701090335846,-1.005611777305603,0.7952009439468384,-1.7560267448425293,-0.8415422439575195,-0.9537575244903564,-0.753304123878479,3.332967519760132,3.346104860305786,2.7605042457580566,1.1566722393035889,-0.4220234155654907,0.8349816799163818,2.032207489013672,0.9741700887680054,-0.3229324221611023,-0.5878413915634155,-0.3463882505893707,-2.195108413696289,0.11678863316774368,-1.2027629613876343,-0.49803316593170166,-0.3381597697734833,-0.13432633876800537,0.19560149312019348,0.46648818254470825,-0.12299373000860214,-0.242967426776886,2.3799855709075928,0.6412583589553833,0.3000856041908264,0.41794353723526,0.4521527886390686,0.4258946180343628,0.26211801171302795,0.26176702976226807,-0.39002859592437744,-1.0732349157333374,-0.14498786628246307,-0.10614955425262451,0.5061535835266113,-0.8085211515426636,0.48373541235923767,-0.9678691625595093,0.23563514649868011,-2.0689518451690674,-0.4161851704120636,-0.03462876006960869,-2.7480063438415527,1.1617109775543213,1.0533636808395386,0.2948942482471466,-0.32764124870300293,1.2092347145080566,-1.033931851387024,0.838856041431427,-1.3587146997451782,-0.18563251197338104,0.5740965604782104,-0.8437004685401917,1.613421082496643,-0.26872557401657104,0.3665299415588379,-0.5000398755073547,0.47285696864128113,-1.6319400072097778,-0.3777441382408142,0.6659654974937439,-0.6083656549453735,0.8197152614593506,0.6508941054344177,0.7030221223831177,-0.5674261450767517,1.1635198593139648,-0.8012447953224182,0.7998248338699341,-1.01776123046875,-1.1558784246444702,1.3308347463607788,-0.6324018239974976,1.2406795024871826,-0.3852332830429077,0.7099813222885132,0.4328911602497101,0.7846541404724121,-1.7878817319869995,-1.13970947265625,1.121126651763916,-0.5914822816848755,0.16276255249977112,0.24336235225200653,-0.3551391065120697,0.7763351202011108,1.5037095546722412,0.5884963870048523,0.5567102432250977,-1.2025322914123535,0.3441016972064972,-0.7982023358345032,-0.948172390460968,0.6465546488761902,0.9462162256240845,0.40340331196784973,-1.4957358837127686,-0.4920016825199127,-1.0234194993972778,-0.06738537549972534,-0.16170832514762878,-0.8005474805831909,0.3815253674983978,2.6382462978363037,-0.09795769304037094,0.4289357364177704,-1.3085477352142334,-0.11805194616317749,0.9381198883056641,-1.4017481803894043,0.21817494928836823,0.6993500590324402,-0.9905502200126648,0.8898882269859314,-1.6063451766967773,0.16726863384246826,-0.3084165155887604,-1.1474967002868652,-1.0239664316177368,0.7603856921195984,1.9658740758895874,1.2418924570083618,0.1382693648338318,1.7705272436141968,-0.44663432240486145,1.02010977268219,0.020804259926080704,0.17287051677703857,0.1736917644739151,-0.8908442258834839,-1.2538648843765259,-0.770219087600708,-1.3358111381530762,0.7210522890090942,-1.205748438835144,0.22230389714241028,-1.9856798648834229,-0.9228759407997131,-1.0134109258651733,-0.2757004201412201,-0.38588473200798035,-0.2620343267917633,0.6155774593353271,1.3334702253341675,0.21869030594825745,0.06341244280338287,0.946221113204956,-0.13093402981758118,0.8445797562599182,-0.9177440404891968,-0.5280725359916687,0.41348227858543396,-0.6069826483726501,0.9473215937614441,-0.9515730142593384,0.5292055606842041,0.02990126796066761,0.5014840960502625,-1.2276790142059326,-0.3020870089530945,1.3039042949676514,0.06900877505540848,0.39603930711746216,0.2726999819278717,-0.7462866902351379,0.8208090662956238,-0.11458928883075714,0.6784747838973999,0.639202892780304,-0.8190372586250305,1.7330360412597656,-0.5400450229644775,-0.18729038536548615,0.3011026978492737,0.5787779688835144,0.34918320178985596,-0.7641850709915161,-0.8988648653030396,-1.2837333679199219,0.35624149441719055,-0.966799259185791,-1.9265285730361938,0.3182383179664612,0.12992911040782928]},"inputHidden":{"rows":20,"columns":20,"weights":[0.7451269030570984,-1.2462849617004395,0.058149732649326324,-0.6757575273513794,-0.7250193357467651,-0.3502814769744873,-0.08313023298978806,-0.510651707649231,-0.6943212747573853,0.976670503616333,0.6368774175643921,0.6761779189109802,-0.3188648521900177,-0.34858232736587524,1.4342235326766968,-1.1882855892181396,1.7998238801956177,-0.18598608672618866,0.0970749706029892,0.626875102519989,0.832424521446228,-1.1536353826522827,0.9052250981330872,0.2358846515417099,-0.09072909504175186,-0.5989587903022766,0.18359071016311646,-0.32754620909690857,0.35878610610961914,1.2999049425125122,-1.4998424053192139,0.09825322777032852,0.579574704170227,-1.0604277849197388,1.4437272548675537,-0.3414194583892822,0.6142001748085022,1.11488676071167,-1.2392940521240234,-1.6285735368728638,0.563576877117157,0.6584965586662292,-2.9409544467926025,0.9426068663597107,-3.382620334625244,-0.1986384093761444,1.9244288206100464,-2.025543451309204,-1.5116174221038818,1.1682398319244385,1.4371392726898193,-0.5779693126678467,0.34493178129196167,1.3129018545150757,-0.2181960940361023,-0.46781909465789795,0.7879025936126709,1.4145499467849731,2.2803890705108643,0.02805718593299389,0.12626494467258453,1.0593528747558594,-2.589785575866699,-1.0646846294403076,0.2750871479511261,0.7355412840843201,-0.17140325903892517,-1.4181703329086304,0.0044800518080592155,0.2611079514026642,0.8269730806350708,-1.4816166162490845,0.5063058733940125,0.011564303189516068,-0.46244344115257263,-0.6798891425132751,-0.6361250281333923,0.4195200800895691,0.2385641187429428,1.3383495807647705,0.5122935175895691,1.091631531715393,-0.8568971157073975,0.5738049745559692,0.44856005907058716,1.0876399278640747,0.566440999507904,-1.1722650527954102,0.6289399862289429,0.7945050001144409,0.12187868356704712,-0.6618024110794067,-1.2264931201934814,-1.0574036836624146,-0.03716408461332321,-1.5742754936218262,1.0358781814575195,0.04324853792786598,-0.8347461819648743,0.608673632144928,-0.7613826990127563,-0.6911303997039795,-1.1202253103256226,0.23194538056850433,1.0844395160675049,-1.9120627641677856,0.38146543502807617,-0.3739681541919708,1.2768107652664185,0.3321009874343872,-0.5432194471359253,-1.8680810928344727,2.402071475982666,0.399006724357605,-0.3895912766456604,1.6472591161727905,0.19274725019931793,0.7609492540359497,0.8339076042175293,-1.3679827451705933,1.615136981010437,0.66043621301651,2.050447702407837,-0.9095010161399841,0.2392992377281189,0.9000360369682312,1.0086313486099243,1.3426170349121094,-0.0336342491209507,1.621503472328186,-0.2080908715724945,0.5192205905914307,-1.100511074066162,-0.2987288534641266,0.7247130870819092,0.6109597682952881,-0.26996615529060364,-0.7602583169937134,-0.1769345998764038,0.6626765131950378,0.1173553466796875,-0.760955274105072,0.3315177857875824,-0.13895337283611298,-0.015508878044784069,-1.4534929990768433,0.9702796339988708,-1.2879215478897095,0.547360897064209,0.4404301643371582,1.1340545415878296,2.0686020851135254,2.143683433532715,2.391427993774414,-1.8496149778366089,-0.09080459177494049,3.0164105892181396,0.3751216530799866,1.2462193965911865,0.29653802514076233,0.748344898223877,-1.2962987422943115,1.5998672246932983,3.9992432594299316,-1.9070090055465698,1.1755659580230713,1.1620599031448364,1.6442155838012695,1.9090038537979126,0.4217322766780853,-0.9495097398757935,-1.3456205129623413,-1.184618353843689,-1.940629482269287,-0.32159242033958435,-0.13806632161140442,-0.9726126790046692,1.0952790975570679,0.9579447507858276,1.1626536846160889,1.1544474363327026,0.8844601511955261,-1.281605839729309,-0.08585324138402939,-0.7787225246429443,0.4407617747783661,-0.4483165740966797,-0.12286505848169327,-0.7515245079994202,0.6241050958633423,0.6245582699775696,0.06594913452863693,-1.047110676765442,-0.8543369770050049,0.8044537901878357,-0.9577892422676086,1.0096877813339233,0.02406868152320385,-0.08090188354253769,0.4126110076904297,-1.5037435293197632,-0.2572318911552429,0.9928260445594788,-3.2978646755218506,3.1017403602600098,3.6674158573150635,1.131420373916626,-0.6045765280723572,2.0700082778930664,0.6376621127128601,0.14602358639240265,2.8314177989959717,-1.0351204872131348,0.907741904258728,-0.8692910075187683,-0.8016157150268555,1.6495472192764282,0.18953898549079895,-0.581243097782135,1.2127634286880493,0.833275318145752,0.1624629944562912,0.9988501667976379,0.019041921943426132,1.0885009765625,-0.7137852907180786,0.29280105233192444,1.6296221017837524,0.9804599285125732,1.1198238134384155,-2.374232292175293,0.5859735608100891,0.788457453250885,0.6313725709915161,-0.20297177135944366,0.2714923024177551,-1.9151911735534668,-0.3710465133190155,0.36861392855644226,0.771040678024292,-0.4514268934726715,0.6079013347625732,-0.7237858176231384,1.5381838083267212,-0.18264485895633698,-0.7739092111587524,0.5112453103065491,-1.6244927644729614,2.680349349975586,0.24632255733013153,-0.8851252794265747,-1.005170226097107,0.41818028688430786,0.3049035370349884,-0.8882923126220703,3.1212620735168457,0.2289695292711258,-0.577537477016449,1.5366530418395996,-0.6714748740196228,0.9200824499130249,-0.020840471610426903,-0.8446764945983887,-0.3166550099849701,-0.4955028295516968,-0.5504838824272156,0.40619105100631714,-0.266539067029953,-0.19305776059627533,1.1061450242996216,1.270065188407898,-0.02481296844780445,0.6265258193016052,0.5036444664001465,-0.21641597151756287,0.997087836265564,-0.0876503735780716,1.3868509531021118,0.3561291992664337,-0.24025604128837585,1.1944506168365479,0.24058584868907928,-1.1335785388946533,0.2085137814283371,-0.5095627307891846,-0.05582239478826523,-0.31549426913261414,-0.5516930818557739,-0.4278186559677124,1.3392165899276733,1.265882968902588,-0.8241575360298157,0.28510329127311707,0.08326689898967743,0.5284940004348755,-0.14796973764896393,0.47142109274864197,0.13446669280529022,0.3750559985637665,0.32370656728744507,0.028531447052955627,-0.3236016035079956,-0.28392189741134644,1.647997260093689,0.49677976965904236,-0.07556171715259552,1.122859239578247,-2.3274388313293457,-1.4615352153778076,1.4157860279083252,0.8407285809516907,-0.05380293354392052,-0.21251077950000763,-0.35859382152557373,-1.3452333211898804,-0.4291396737098694,3.2174837589263916,0.9600821137428284,0.08500704914331436,-1.0989997386932373,0.47288423776626587,-3.0227627754211426,0.7818863987922668,-0.02076115645468235,0.39213570952415466,-2.9037387371063232,1.878352165222168,-1.1677968502044678,0.8370110988616943,0.6543886065483093,0.6572832465171814,1.7619295120239258,2.6345877647399902,-0.5098625421524048,1.162896752357483,-1.4539954662322998,3.2661561965942383,2.3281803131103516,-0.1445002257823944,-1.465828776359558,-0.8167241811752319,-1.395620346069336,-0.1002773642539978,-0.7285473346710205,-0.697964072227478,-0.049816783517599106,2.615683078765869,-1.1430922746658325,-0.49266839027404785,1.1994552612304688,0.7461952567100525,0.32868313789367676,2.9850852489471436,1.011195182800293,-0.5505749583244324,-0.20723479986190796,1.2431697845458984,-0.1496777981519699,0.9198430776596069,0.36589014530181885,1.2691251039505005,-0.19835537672042847,-1.1828216314315796,-0.7498551607131958,-0.33703890442848206,0.0579366460442543,0.06992637366056442,1.7796050310134888,0.7633906602859497,2.104194402694702,0.37644270062446594,1.583634614944458,0.3167738616466522,-0.12860384583473206,-0.12261878699064255,1.227268099784851,-0.5160647630691528,-0.18859699368476868,-0.4743371605873108,-0.2857230007648468,0.3506123125553131,-1.1437450647354126,-1.9365934133529663,-0.15009507536888123,0.5360926985740662,-1.8590304851531982,0.7234422564506531,-2.1251227855682373,1.3656336069107056,1.0937515497207642,0.5866096019744873,-2.4987781047821045,1.6838873624801636,-0.04862070083618164,0.8500576019287109,0.9421669840812683,-0.2385508269071579,1.4260954856872559,0.19906924664974213,-1.8095877170562744]},"inputBias":{"rows":20,"columns":1,"weights":[-0.2660772204399109,0.9806515574455261,-1.5568151473999023,-0.5173067450523376,-0.5463377237319946,-0.4915037453174591,-0.5858360528945923,-0.9132987856864929,0.832769513130188,0.47898635268211365,-0.6261679530143738,1.5111284255981445,-0.716589093208313,-0.7092174291610718,-1.0648807287216187,0.18699264526367188,-0.8649585247039795,-0.44048717617988586,-0.3342931568622589,-0.9243780970573425]},"forgetMatrix":{"rows":20,"columns":20,"weights":[-0.07816936075687408,0.18226364254951477,0.5203818082809448,1.801641821861267,-0.29291868209838867,-1.119084119796753,-0.5093649625778198,0.25618648529052734,-1.5537962913513184,-0.87103670835495,0.6350818276405334,0.7377898693084717,0.5030286312103271,0.8092180490493774,0.539818286895752,0.03432571887969971,-0.2011435180902481,-0.46692708134651184,-0.4836016297340393,-1.7100744247436523,-0.14537061750888824,0.8561846017837524,1.6476620435714722,0.2774512469768524,-0.3647361993789673,-0.23906639218330383,0.9409769177436829,-2.0327305793762207,-0.34529855847358704,-0.6457693576812744,1.2525931596755981,-0.645125687122345,-0.1526273936033249,-0.04728648439049721,0.19810941815376282,0.40022513270378113,-0.3856815993785858,0.6891588568687439,0.5891693830490112,1.1447097063064575,-0.5347010493278503,0.35128310322761536,1.2516282796859741,1.2288695573806763,0.3100428879261017,-0.5535556077957153,0.23396974802017212,-0.050420112907886505,0.45373600721359253,-1.72367525100708,-0.10496579110622406,0.6369687914848328,2.2075204849243164,-0.4370833933353424,1.6326309442520142,0.5901449918746948,-1.2018100023269653,-0.8887680768966675,-2.4388620853424072,-2.238311290740967,-1.5911093950271606,0.25749194622039795,-0.40431758761405945,0.847712516784668,0.19986695051193237,0.8982864022254944,-0.37405335903167725,-0.10708286613225937,0.20030930638313293,0.25640228390693665,-0.8209579586982727,-0.2285621166229248,1.1198660135269165,-0.716035783290863,-0.15658336877822876,0.690508246421814,-0.8772686123847961,-1.1147364377975464,-1.8718773126602173,0.08074670284986496,0.11257960647344589,-0.18141086399555206,0.4492079019546509,-0.04408373311161995,-1.213202714920044,2.7710509300231934,0.05992746353149414,0.33536428213119507,1.5846493244171143,-0.8112581968307495,0.11198708415031433,0.2957454323768616,-0.021359646692872047,